0.0,0.0,0.0,0.0,0.0,0.0,0.0,0.0,0.0,0.0
0.0,0.0,0.0,0.0,0.0,0.0,0.0,0.0,0.0,0.0
0.0,0.0,0.0,0.0,0.0,0.0,0.0,0.0,0.0,0.0
0.0,0.0,0.0,0.0,0.0,0.0,0.0,0.0,0.0,0.0
0.0,0.0,0.0,0.0,0.0,0.0,0.0,0.0,0.0,0.0
0.0,0.0,0.0,0.0,0.0,0.0,0.0,0.0,0.0,0.0
0.0,0.0,0.0,0.0,0.0,0.0,0.0,0.0,0.0,0.0
0.0,0.0,0.0,0.0,0.0,0.0,0.0,0.0,0.0,0.0
0.0,0.0,0.0,0.0,0.0,0.0,0.0,0.0,0.0,0.0
0.0,0.0,0.0,0.0,0.0,0.0,0.0,0.0,0.0,0.0
0.0,0.0,0.0,0.0,0.0,0.0,0.0,0.0,0.0,0.0
0.0,0.0,0.0,0.0,0.0,0.0,0.0,0.0,0.0,0.0
-1.8041e-06,-2.14247e-06,-7.16261e-05,-8.36682e-06,-0.000659221,-5.10481e-06,0.000838429,-1.43898e-06,-2.86597e-05,-6.00649e-05
-8.0551e-06,-6.83138e-06,0.000210904,-1.90599e-05,-0.00169304,-1.29097e-05,0.00175696,-6.91325e-06,-7.25615e-05,-0.000148496
-4.5678e-06,-2.38154e-06,0.000409224,-8.22882e-07,-0.000277722,-1.92729e-06,-8.78133e-05,-4.18681e-06,-1.09128e-05,-1.88898e-05
-1.90325e-07,-9.92306e-08,1.7051e-05,-3.42867e-08,-1.15718e-05,-8.03038e-08,-3.65889e-06,-1.7445e-07,-4.547e-07,-7.87074e-07
0.0,0.0,0.0,0.0,0.0,0.0,0.0,0.0,0.0,0.0
0.0,0.0,0.0,0.0,0.0,0.0,0.0,0.0,0.0,0.0
0.0,0.0,0.0,0.0,0.0,0.0,0.0,0.0,0.0,0.0
0.0,0.0,0.0,0.0,0.0,0.0,0.0,0.0,0.0,0.0
0.0,0.0,0.0,0.0,0.0,0.0,0.0,0.0,0.0,0.0
0.0,0.0,0.0,0.0,0.0,0.0,0.0,0.0,0.0,0.0
0.0,0.0,0.0,0.0,0.0,0.0,0.0,0.0,0.0,0.0
0.0,0.0,0.0,0.0,0.0,0.0,0.0,0.0,0.0,0.0
0.0,0.0,0.0,0.0,0.0,0.0,0.0,0.0,0.0,0.0
0.0,0.0,0.0,0.0,0.0,0.0,0.0,0.0,0.0,0.0
0.0,0.0,0.0,0.0,0.0,0.0,0.0,0.0,0.0,0.0
0.0,0.0,0.0,0.0,0.0,0.0,0.0,0.0,0.0,0.0
0.0,0.0,0.0,0.0,0.0,0.0,0.0,0.0,0.0,0.0
0.0,0.0,0.0,0.0,0.0,0.0,0.0,0.0,0.0,0.0
0.0,0.0,0.0,0.0,0.0,0.0,0.0,0.0,0.0,0.0
0.0,0.0,0.0,0.0,0.0,0.0,0.0,0.0,0.0,0.0
-7.91274e-09,-5.14244e-09,-1.30516e-06,-1.18501e-10,-2.99558e-06,-8.37634e-08,4.64201e-06,-1.77796e-09,-8.12424e-08,-1.61271e-07
-5.70193e-08,-1.52216e-08,-4.30338e-06,-1.23323e-09,-2.07454e-05,-2.52424e-07,2.63126e-05,-9.03802e-08,-2.44793e-07,-6.02626e-07
-8.48904e-05,-2.86318e-05,-0.000122365,-5.62139e-05,-0.00178595,-3.03204e-05,0.00231934,-9.9153e-05,-3.36923e-05,-7.81182e-05
-0.000128791,-6.64673e-05,-0.000169401,-8.20522e-05,-0.0044504,-4.53587e-05,0.00530893,-0.000154764,-6.27193e-05,-0.000148975
-4.79842e-05,-0.0010593,0.00117521,-1.80226e-05,-0.00525945,-2.07233e-05,0.0056437,-9.9995e-05,-0.000214151,-9.92771e-05
-0.000144092,-0.000858762,9.09246e-05,-2.84588e-05,-0.00338294,-2.58498e-05,0.00500116,-0.000243206,-0.000258463,-0.000150311
-0.00064485,-0.000733179,-0.0011147,-0.000236688,-0.00659467,-0.000119499,0.010703,-0.000431943,-0.000376848,-0.000450594
-0.000132819,-0.000501644,-0.00241223,-0.000288921,-0.00965239,-0.00019431,0.0153404,-0.000868663,-0.000511399,-0.000777983
0.000471386,-0.000478649,-0.00365355,-0.000457006,-0.0153124,-0.000487211,0.0231555,-0.00133739,-0.000690218,-0.00121049
6.65036e-05,-0.000466923,-0.00132805,-0.000389377,-0.00997965,-0.000335618,0.0148827,-0.000665781,-0.00073599,-0.00104778
-0.000853243,0.00198388,-0.00038141,-0.0003209,-0.0056121,-0.000242911,0.00741785,-0.000444901,-0.000698393,-0.000847877
-0.0014726,0.00315191,-0.00194699,-0.000360292,-0.00486488,-0.000327513,0.00812968,-0.000606326,-0.000775433,-0.000927554
-0.00183457,-0.00154786,0.00566625,-0.000359779,-0.00577563,-0.000378403,0.00683081,-0.000637034,-0.000929412,-0.00103435
-0.00098222,-0.00113872,0.00232439,-0.000247134,-0.00393567,-0.000272995,0.00632972,-0.000409154,-0.000800088,-0.000868112
-0.000325196,-0.000168956,-0.00175794,-3.78084e-05,-0.00195761,-0.000125292,0.0055577,-0.000130302,-0.000544644,-0.000509961
-0.000200754,-9.17716e-05,-0.00228737,-2.05451e-05,-0.00170299,-0.000164034,0.00539258,-6.0441e-05,-0.000408668,-0.00045601
-0.00010051,-0.000106168,-0.00154169,-2.47265e-05,-0.0016855,-0.000105708,0.00416369,-4.02792e-05,-0.000297599,-0.00026151
-3.02992e-05,-9.30425e-05,-0.000903102,-4.71631e-06,-0.00206121,-5.81222e-05,0.00346513,-1.2056e-05,-0.000219072,-8.35039e-05
-5.02375e-06,-6.03141e-06,-6.38264e-05,-7.1224e-08,-0.0018058,-7.79895e-06,0.00191891,-3.0657e-07,-2.08677e-05,-9.1824e-06
-6.96591e-08,-2.19687e-08,-6.50483e-06,-4.88614e-09,-0.000371032,-3.19647e-07,0.000385555,-4.22896e-07,-3.50945e-06,-3.67021e-06
0.0,0.0,0.0,0.0,0.0,0.0,0.0,0.0,0.0,0.0
0.0,0.0,0.0,0.0,0.0,0.0,0.0,0.0,0.0,0.0
0.0,0.0,0.0,0.0,0.0,0.0,0.0,0.0,0.0,0.0
0.0,0.0,0.0,0.0,0.0,0.0,0.0,0.0,0.0,0.0
0.0,0.0,0.0,0.0,0.0,0.0,0.0,0.0,0.0,0.0
0.0,0.0,0.0,0.0,0.0,0.0,0.0,0.0,0.0,0.0
-1.25702e-08,-4.75627e-11,-5.84478e-08,-2.52613e-10,-2.24362e-07,-6.29982e-08,6.12394e-07,-5.79492e-13,-6.54681e-08,-1.8834e-07
0.000144889,-5.73105e-07,-2.23e-05,-4.12616e-07,-7.71542e-05,-6.55716e-06,-1.08246e-05,-1.60181e-05,-2.94146e-06,-8.10816e-06
3.6149e-05,-1.18019e-05,-0.000203492,-6.73358e-06,-0.000254391,-1.07059e-05,0.000603056,-3.00201e-05,-4.20588e-05,-8.0001e-05
-4.01743e-05,-3.33931e-06,-3.98967e-05,-1.76085e-06,-9.17203e-05,-2.05007e-06,0.000210451,-5.20085e-06,-9.97563e-06,-1.63324e-05
-0.000440471,-3.31892e-05,-0.000388212,-4.13127e-05,-0.00229856,-3.44907e-05,0.00348852,-0.00010432,-5.52893e-05,-9.26756e-05
-0.000902084,-0.000846074,-0.000431239,-0.00034727,-0.0103304,-0.000249282,0.0144705,-0.000593914,-0.000300713,-0.000469524
-0.0024465,-0.00298098,0.00146195,-0.000779467,-0.0153424,-0.000316597,0.0229021,-0.00104382,-0.000718101,-0.00073618
-0.00463267,-0.00397601,0.0017236,-0.00103689,-0.0195145,-0.000600044,0.0328009,-0.00163716,-0.00180911,-0.00131812
-0.00690011,-0.00557417,-0.00211154,-0.0016697,-0.0328293,-0.00106312,0.0592402,-0.00283699,-0.00349319,-0.00276209
-0.00821207,-0.00537514,0.00542206,-0.00200572,-0.0425226,-0.00174877,0.0674861,-0.00393775,-0.00490699,-0.0041991
-0.0103524,-0.00428608,0.00827553,-0.0028634,-0.0585671,-0.00303489,0.0885583,-0.00458832,-0.00718505,-0.00595658
-0.0150141,-0.00429379,0.00862537,-0.00406656,-0.0576208,-0.00440507,0.0987724,-0.00519173,-0.009245,-0.00756071
-0.0211977,0.000553649,0.00648679,-0.00576006,-0.0513786,-0.00516085,0.103259,-0.00635127,-0.011278,-0.00917263
-0.0256269,0.00174348,0.00632206,-0.00736955,-0.0427987,-0.00591933,0.102981,-0.00638403,-0.0125713,-0.0103769
-0.0242045,-0.00367925,0.00646819,-0.00680092,-0.0372318,-0.00543365,0.0985768,-0.00522576,-0.0123166,-0.0101525
-0.0190523,-0.00926084,-0.000304431,-0.00581952,-0.0265009,-0.00392629,0.0890932,-0.00402717,-0.0116014,-0.00860035
-0.0162868,-0.00972789,-0.0167232,-0.00508846,-0.0161143,-0.00377438,0.0887961,-0.00365184,-0.0103103,-0.00711895
-0.0137892,-0.0100599,-0.0220918,-0.00338924,-0.00943943,-0.00226041,0.0769918,-0.00247008,-0.00829096,-0.00520075
-0.0101083,-0.00734033,-0.0179132,-0.0019192,-0.00613905,-0.00276933,0.0542268,-0.00134075,-0.00417892,-0.00251765
-0.00632134,-0.00487264,-0.0161387,-0.00165508,-0.00588575,-0.00285698,0.0434603,-0.000908605,-0.00319096,-0.00163028
-0.00370182,-0.00258911,-0.010645,-0.00103884,-0.00499023,-0.00172044,0.0280765,-0.000578954,-0.00188175,-0.000930279
-0.00145636,-0.00155068,-0.00455742,-0.000280761,-0.00300923,-0.000763999,0.0128233,-0.000122706,-0.000800743,-0.000281394
-0.000578435,-0.000894206,-0.000658165,-0.000126806,-0.000935492,-0.000256129,0.00403261,-6.97958e-05,-0.000388031,-0.000125546
-0.000233184,-0.000243607,0.000588475,-5.37851e-05,-0.000250043,-2.63675e-05,0.000442947,-3.97769e-05,-0.000132005,-5.2654e-05
0.0,0.0,0.0,0.0,0.0,0.0,0.0,0.0,0.0,0.0
0.0,0.0,0.0,0.0,0.0,0.0,0.0,0.0,0.0,0.0
0.0,0.0,0.0,0.0,0.0,0.0,0.0,0.0,0.0,0.0
0.0,0.0,0.0,0.0,0.0,0.0,0.0,0.0,0.0,0.0
-6.39995e-07,6.66844e-05,2.97092e-06,-2.10909e-06,-4.89168e-06,-6.52981e-07,-4.81598e-05,-6.56444e-07,-9.48171e-06,-3.06388e-06
0.000301781,1.43534e-05,-7.22158e-05,-1.78273e-06,-0.00025885,-4.31535e-05,0.000176207,-4.64117e-05,-4.4039e-05,-2.58875e-05
-0.000191164,-5.91807e-06,-0.000224657,1.3564e-06,-0.000191203,-5.37244e-05,0.000787848,-6.87371e-05,-2.94631e-05,-2.43373e-05
-0.00133568,-0.000206914,0.000972833,0.00211749,-0.000515533,-0.000383966,8.19539e-05,-0.000201723,-0.000321724,-0.000206737
-0.00412396,-0.00089698,0.00264097,0.00181662,-0.00537986,-0.000514313,0.00843044,-0.00064315,-0.000794337,-0.000535427
-0.00722559,-0.00384279,0.0138954,0.00161405,-0.0185711,-0.00143696,0.0222511,-0.00274496,-0.00240976,-0.00152935
-0.00991437,-0.0102481,0.0318708,0.00386029,-0.0326881,-0.00219563,0.0315745,-0.00479163,-0.00478307,-0.00268476
-0.0210487,-0.0205026,0.0618436,0.011003,-0.0476669,-0.00661469,0.0471536,-0.00711936,-0.011988,-0.00505976
-0.0265348,-0.0310217,0.0832949,0.0226102,-0.0673609,-0.011897,0.0702846,-0.0105671,-0.0201799,-0.00862836
-0.0288745,-0.040431,0.105285,0.0420243,-0.0902017,-0.0181872,0.0847998,-0.0139516,-0.027377,-0.0130863
-0.0370457,-0.0427057,0.119952,0.066626,-0.114282,-0.0229003,0.100904,-0.0164129,-0.0360432,-0.0180916
-0.0386864,-0.0350903,0.119222,0.0716247,-0.123981,-0.0274817,0.128803,-0.020223,-0.0505964,-0.0235912
-0.0447016,-0.0263291,0.0896829,0.0750301,-0.122854,-0.0276153,0.172976,-0.0206561,-0.065009,-0.0305234
-0.0458225,-0.0213844,0.0826906,0.0572685,-0.109594,-0.0245446,0.191582,-0.0201966,-0.0740622,-0.0359371
-0.0439447,-0.0363207,0.07016,0.0384472,-0.0879522,-0.0224846,0.222129,-0.019132,-0.0852738,-0.0356283
-0.057465,-0.0457337,0.0261038,0.0260185,-0.0706656,-0.0193403,0.274883,-0.0176302,-0.085417,-0.0307527
-0.0673338,-0.0477972,-0.00761098,0.0100712,-0.0464991,-0.0111761,0.278713,-0.0141859,-0.070283,-0.023898
-0.0638349,-0.0442585,-0.0305612,-0.00787908,-0.0236291,-0.0103448,0.263952,-0.00849677,-0.0565544,-0.0183927
-0.0548152,-0.0311298,-0.0390461,-0.0130148,-0.0169068,-0.0145915,0.218337,-0.0054947,-0.0305604,-0.0127778
-0.0430913,-0.0156758,-0.0363613,-0.0160482,-0.0122876,-0.0116977,0.161836,-0.00334208,-0.0160046,-0.00732744
-0.0277255,-0.00882098,-0.028512,-0.00928286,-0.00722087,-0.0109101,0.104201,-0.00192393,-0.00654278,-0.00326198
-0.0120418,-0.00650805,-0.016284,-0.00334865,-0.00478248,-0.0104883,0.0560972,-0.000877892,-0.000252365,-0.00151367
-0.00443295,-0.00373474,-0.00585793,-0.00127524,-0.00260142,-0.00746496,0.0269151,-0.000209817,-0.000831804,-0.00050622
-0.00113512,-0.000491066,-0.000375439,-0.000195514,-0.000131995,-0.00112759,0.00380138,-6.81189e-05,-0.000163974,-0.000112554
-0.000108816,-0.00011596,1.79972e-05,6.33134e-07,1.2823e-05,0.000149182,1.93082e-05,1.25348e-07,2.4123e-05,5.83169e-07
0.0,0.0,0.0,0.0,0.0,0.0,0.0,0.0,0.0,0.0
0.0,0.0,0.0,0.0,0.0,0.0,0.0,0.0,0.0,0.0
-5.48716e-09,-2.31144e-09,-4.87482e-07,7.55648e-07,-3.93471e-08,-1.8104e-07,-1.22853e-08,-4.27091e-10,-2.70812e-08,-1.92085e-10
-8.08125e-05,0.00019581,-0.00013022,0.000236947,-5.07017e-05,-3.73891e-05,-0.000206232,-1.53676e-05,0.000114967,-2.70011e-05
-7.86498e-05,-2.17863e-05,-0.000280467,0.000962798,-7.32278e-05,-0.000297487,-1.22368e-05,3.27726e-05,-0.000175801,-5.59141e-05
-0.00124341,-0.000391828,-0.00313614,0.00641027,0.00156598,-0.00167313,0.000248274,-0.000322475,-0.00119861,-0.000258945
-0.00833303,-0.0025702,0.00408246,0.0200969,0.00159207,-0.00461268,-0.00261817,-0.00228723,-0.00369143,-0.00165868
-0.0155303,-0.00700024,0.0195132,0.0331905,-0.00754762,-0.00679625,0.00099157,-0.0040034,-0.00953187,-0.00328562
-0.0208983,-0.0202852,0.0568144,0.0498903,-0.0231823,-0.0129721,0.00888194,-0.0102085,-0.0215804,-0.00645973
-0.0284896,-0.0393731,0.112232,0.0737337,-0.0414314,-0.0261757,0.0119605,-0.0173704,-0.0339981,-0.0110876
-0.0460078,-0.0609391,0.179067,0.104286,-0.0633603,-0.0384839,0.0180202,-0.0268841,-0.0463546,-0.0193435
-0.0597445,-0.0580646,0.238712,0.141044,-0.101228,-0.0541384,0.0212091,-0.0390075,-0.0574839,-0.031299
-0.0565446,-0.0215979,0.277524,0.155134,-0.128616,-0.0673003,0.0106211,-0.0564848,-0.0623479,-0.0503886
-0.044983,0.0289761,0.29695,0.147276,-0.153807,-0.0781629,0.0133154,-0.07707,-0.0534038,-0.0790917
-0.0247917,0.0529416,0.294184,0.13214,-0.171817,-0.0845866,0.0266903,-0.0920988,-0.0282951,-0.104367
-0.00495869,0.0518644,0.28324,0.0971161,-0.175801,-0.0745465,0.0514279,-0.101454,0.00839042,-0.135279
0.0142913,0.0305,0.258145,0.0673524,-0.162868,-0.0396492,0.0794154,-0.0997605,0.00218814,-0.149615
-0.00514467,-0.00492147,0.233705,0.0276522,-0.120243,-0.0122823,0.167228,-0.089116,-0.0458311,-0.151046
-0.0236871,-0.00941359,0.161817,-0.00947973,-0.0909036,0.00546966,0.24919,-0.0739946,-0.0861942,-0.122805
-0.0327453,0.00371347,0.0681956,-0.0173078,-0.0593239,0.0068878,0.285947,-0.0577139,-0.105566,-0.0920862
-0.0327617,0.060074,-0.0117132,-0.0461165,-0.0305065,-0.00154569,0.281081,-0.0410787,-0.109694,-0.0677387
-0.037158,0.099585,-0.0589953,-0.0716881,-0.00131488,-0.00420866,0.235274,-0.0291842,-0.0834861,-0.0488234
-0.0396964,0.104407,-0.0734721,-0.0752218,0.0085531,0.0242621,0.176895,-0.0159076,-0.0771671,-0.0326517
-0.0279024,0.0663916,-0.0602629,-0.0563725,0.0159345,0.0382125,0.108025,-0.0104887,-0.0545226,-0.0190143
-0.0204913,0.0244893,-0.0337759,-0.0381386,0.0214071,0.0380783,0.052715,-0.00438827,-0.0311136,-0.0087819
-0.0146302,0.000850704,-0.0139246,-0.0104884,0.00942827,0.0173728,0.0234618,-0.00131648,-0.00791073,-0.00284319
-0.00426487,-0.00325782,-0.00238822,-0.00145072,0.00046972,0.0071367,0.00343334,-0.000457697,0.00164133,-0.000861769
-0.000557047,-0.000693688,-9.89445e-05,-5.71911e-05,-0.00101157,0.00094248,-0.000374286,-8.94081e-05,0.00220864,-0.000268991
-3.62397e-06,-0.000149452,-1.68806e-06,-1.81255e-06,-0.000332719,-3.02589e-05,7.66636e-06,-3.9738e-06,0.000529335,-1.34726e-05
0.0,0.0,0.0,0.0,0.0,0.0,0.0,0.0,0.0,0.0
0.0,0.0,0.0,0.0,0.0,0.0,0.0,0.0,0.0,0.0
-6.2293e-05,1.72966e-05,-3.53238e-07,0.000525888,-2.09325e-05,-0.000354085,-4.39615e-06,-8.30717e-06,-8.67334e-05,-6.08416e-06
-0.000248488,0.0010351,-3.26328e-05,0.00463861,0.000161509,-0.0020503,-0.00115665,-5.65577e-05,-0.00188648,-0.00040412
-0.00452612,-0.000467042,-0.00327639,0.0236896,0.0028594,-0.00553154,-0.00353787,-0.00156399,-0.00576912,-0.00187691
-0.0176009,-0.00759034,0.00869689,0.0633767,0.00878907,-0.0160952,-0.0104211,-0.00570812,-0.0151964,-0.00825065
-0.0261859,-0.0213793,0.0523134,0.102446,0.00932609,-0.0251855,-0.0215592,-0.0110352,-0.0385316,-0.0202083
-0.041,-0.0451278,0.127342,0.127022,0.00342496,-0.0318694,-0.022682,-0.0212663,-0.0618044,-0.0340387
-0.0597079,-0.082682,0.197991,0.16408,-0.0119495,-0.0385526,-0.0123237,-0.035925,-0.0688061,-0.0521239
-0.0724701,-0.114328,0.263357,0.192303,-0.0230761,-0.024501,-0.0181974,-0.0554689,-0.0599536,-0.0876651
-0.0609969,-0.101854,0.299484,0.220199,-0.0640836,-0.00903477,-0.0220493,-0.0868806,-0.0546134,-0.120171
-0.0250213,-0.0255395,0.317495,0.21507,-0.101534,0.00130066,-0.0701322,-0.139124,-0.0116404,-0.160875
0.0241964,0.0562977,0.31817,0.179283,-0.130879,0.00181499,-0.0774625,-0.18998,0.0424655,-0.223906
0.0904275,0.0827056,0.332795,0.158328,-0.145689,-0.0178153,-0.0965898,-0.231769,0.105191,-0.277583
0.128162,0.0627672,0.333206,0.115217,-0.127908,-0.0171482,-0.0728597,-0.250257,0.174708,-0.345888
0.151804,0.00831597,0.335336,0.103025,-0.0948746,0.00130197,-0.0383,-0.248844,0.178107,-0.39587
0.164859,-0.0511527,0.297924,0.0773784,-0.0187801,0.0167319,0.015649,-0.242311,0.169768,-0.430068
0.150893,-0.0700528,0.223349,0.00303006,0.00352067,0.0404268,0.0798308,-0.217643,0.144161,-0.357515
0.0966053,-0.0090416,0.111613,-0.0422676,0.0374757,0.0602025,0.126836,-0.174972,0.0639495,-0.270401
0.0598721,0.0788909,0.000717385,-0.0770442,0.0543407,0.079891,0.143707,-0.137536,-0.000250356,-0.202588
0.0159024,0.158234,-0.0652927,-0.091786,0.0654905,0.111401,0.0962404,-0.100949,-0.0411735,-0.148067
-0.00289004,0.171021,-0.0713788,-0.124055,0.0874969,0.138545,0.0415444,-0.0625004,-0.0618643,-0.115919
-0.0217055,0.11068,-0.0660796,-0.123627,0.117984,0.168113,0.0128905,-0.0398391,-0.0643343,-0.0940825
-0.036145,0.0358965,-0.0535977,-0.0883064,0.123025,0.158598,-0.00349242,-0.0253153,-0.0446897,-0.0659728
-0.0332154,-0.00102376,-0.0208721,-0.0347449,0.0531784,0.0982978,-0.00640807,-0.0105085,-0.0151879,-0.0295156
-0.0139855,-0.0100804,-0.00485553,-0.00713586,0.00668379,0.0431898,-0.00477858,-0.00382325,0.00204727,-0.00726175
-0.0036807,-0.00119369,-0.000418769,-0.00038732,-0.00113622,0.0122295,-0.00225972,-0.00243118,-4.46396e-05,-0.000677289
-6.50387e-05,-3.96427e-05,1.51377e-06,-1.07798e-05,-3.45498e-05,3.01759e-05,2.61244e-05,-3.6314e-05,0.000134043,-5.53151e-06
0.0,0.0,0.0,0.0,0.0,0.0,0.0,0.0,0.0,0.0
-3.96827e-07,-5.11836e-07,-1.75149e-06,3.19873e-05,-8.38616e-08,-2.3913e-06,-9.60773e-08,-5.16619e-07,-1.66304e-06,-2.45763e-05
-0.000280255,-0.000265586,0.000214337,2.02077e-05,-0.000421407,-0.000361928,-0.000168745,0.00208733,-0.000289714,-0.00053424
-0.00139355,0.00147003,-0.00165844,0.0166038,-0.00129405,-0.00575079,-0.00453473,0.00422933,-0.00553337,-0.00213827
-0.00873146,-0.0020429,-0.00322437,0.0584469,0.00437557,-0.0180641,-0.0118187,0.00715063,-0.0145349,-0.0115567
-0.0202157,-0.0165827,0.0166127,0.108843,0.0197907,-0.032817,-0.0235393,0.0146485,-0.03263,-0.0341099
-0.0364445,-0.0405636,0.0876188,0.149136,0.028111,-0.0412137,-0.0437868,0.0244579,-0.0621648,-0.0651501
-0.0514413,-0.0755371,0.160504,0.162688,0.031372,-0.037906,-0.0371785,0.0281575,-0.0715969,-0.109062
-0.0695451,-0.128111,0.200572,0.210103,0.00799048,-0.0248358,-0.0392199,0.0376878,-0.0454601,-0.149181
-0.066368,-0.172667,0.21786,0.224622,-0.00733068,0.0240144,-0.0480132,0.0346084,-0.0210934,-0.185633
-0.0298169,-0.174712,0.223572,0.222494,-0.0503933,0.0726675,-0.0707262,0.00622324,-0.00342673,-0.195881
0.00967587,-0.0939567,0.197565,0.210336,-0.139225,0.0965858,-0.116015,-0.0580152,0.0286999,-0.135651
0.0562089,-0.0187791,0.187929,0.192513,-0.205412,0.0883399,-0.145103,-0.136999,0.0464795,-0.0651783
0.110941,-0.00478857,0.186982,0.198274,-0.282146,0.0707579,-0.177956,-0.225782,0.0666581,0.057058
0.137064,-0.04513,0.204129,0.187985,-0.361787,0.0531116,-0.165388,-0.274442,0.110691,0.153766
0.179382,-0.124343,0.18963,0.176708,-0.349508,-0.00255899,-0.120888,-0.265071,0.16444,0.15221
0.206523,-0.169276,0.162373,0.148652,-0.247086,0.00341155,-0.0944534,-0.226105,0.140713,0.0752479
0.232043,-0.153694,0.11094,0.0905669,-0.144335,0.0413937,-0.0837124,-0.196473,0.0953188,0.00795168
0.191714,-0.0534304,0.0553498,0.0517127,-0.0758728,0.0726122,-0.0789894,-0.170136,0.0409353,-0.0338962
0.141433,0.0581184,-0.00665826,-0.0134559,0.00472723,0.119879,-0.0871701,-0.135648,0.0265006,-0.107726
0.0916877,0.128526,-0.0455511,-0.0256417,0.0454857,0.163809,-0.116407,-0.112434,0.0130846,-0.142559
0.060854,0.109471,-0.0601534,-0.0795433,0.123562,0.208846,-0.117678,-0.0760713,0.00427098,-0.173558
0.027735,0.0460078,-0.0594507,-0.135903,0.208238,0.264078,-0.100307,-0.0614785,-0.0112846,-0.177635
-0.0255333,-0.00623236,-0.0729628,-0.117197,0.188149,0.286795,-0.0820384,-0.0438902,0.0104045,-0.137494
-0.0543596,-0.0238281,-0.0310216,-0.0602808,0.0769096,0.228394,-0.0432653,-0.0244387,0.00538832,-0.0734982
-0.0300512,-0.0163729,-0.00835029,-0.0141461,0.018285,0.10889,-0.0179675,-0.0131535,-0.00212168,-0.0250123
-0.0100442,-0.00237167,-0.000932746,-0.00181095,0.00264889,0.0318099,-0.0043405,-0.00430447,-0.00516354,-0.00549064
-0.00128608,-0.000110006,-2.43839e-05,-8.55556e-06,-0.000100535,0.00303146,-0.00035625,-0.000263748,-0.000592043,-0.000289859
0.0,0.0,0.0,0.0,0.0,0.0,0.0,0.0,0.0,0.0
-6.83904e-05,-5.13143e-05,-5.32938e-05,0.00110992,-6.81484e-05,-0.000229634,-1.17803e-05,0.000692965,-0.000443316,-0.000877007
-0.000670912,-0.000326408,0.00108905,0.00056311,-0.00110436,-0.0018959,-0.000598681,0.00688731,-0.00130136,-0.00264184
-0.00279792,-0.000972304,-0.00415797,0.0231212,-0.00176673,-0.0106164,-0.00606826,0.0189198,-0.0065248,-0.00913662
-0.015741,-0.00575728,-0.000770349,0.0849219,0.0069526,-0.0325502,-0.0180049,0.0323485,-0.016411,-0.0349882
-0.0297663,-0.0253509,0.0295409,0.139006,0.0189904,-0.0480013,-0.0418011,0.0723822,-0.0339349,-0.0810654
-0.0452839,-0.0624354,0.110311,0.158184,0.0159528,-0.0481262,-0.0642178,0.116054,-0.0421592,-0.13828
-0.0547673,-0.106042,0.138536,0.139684,0.0210799,-0.0225832,-0.051306,0.142196,-0.014108,-0.192689
-0.0664166,-0.170234,0.138107,0.135018,-0.0189061,0.0225006,-0.0438826,0.19628,0.0252646,-0.217733
-0.0263994,-0.2179,0.123026,0.118533,-0.0506604,0.0770048,-0.0601169,0.210714,0.0271149,-0.201315
0.00237659,-0.239619,0.115356,0.10804,-0.120859,0.120058,-0.0924836,0.187545,0.0345324,-0.114946
0.0421115,-0.18777,0.104764,0.0907787,-0.221478,0.136682,-0.130702,0.150156,0.00804931,0.00740815
0.075301,-0.106783,0.100627,0.0825642,-0.311721,0.115686,-0.191304,0.093523,-0.0235028,0.16561
0.0837459,-0.0692108,0.113523,0.109254,-0.375489,0.0540511,-0.227423,0.00532954,-0.0198975,0.326117
0.102145,-0.111722,0.131553,0.154605,-0.536285,-0.00690646,-0.199674,-0.0490853,-0.0303985,0.545769
0.137167,-0.153733,0.100128,0.187352,-0.594333,-0.071196,-0.166834,-0.0485184,-0.00105424,0.611021
0.188559,-0.166208,0.050404,0.151479,-0.460942,-0.0588823,-0.192993,0.00838977,-0.00882338,0.489015
0.240853,-0.13202,0.00524304,0.103444,-0.290202,-0.00449484,-0.245164,0.0459146,-0.0147849,0.291211
0.224503,-0.0568723,0.00660636,0.059918,-0.180289,0.0581983,-0.300627,0.0533931,0.00468638,0.130483
0.16811,0.0387024,-0.00773399,0.0630759,-0.106604,0.116796,-0.306322,0.0539005,-0.0231302,0.00320527
0.107759,0.0503988,-0.0318544,0.0634409,-0.0390957,0.163009,-0.277812,0.0244976,0.0413185,-0.101662
0.0789493,0.0135412,-0.0254715,-0.00550638,0.0828293,0.22175,-0.236482,-0.0136089,0.0607139,-0.176715
0.0624508,-0.0369131,-0.0236252,-0.0969817,0.160135,0.276565,-0.181873,-0.0216255,0.068714,-0.206845
0.00392522,-0.066795,-0.0777692,-0.11821,0.137295,0.341251,-0.118085,-0.0285338,0.0983476,-0.171427
-0.0569589,-0.0534664,-0.047207,-0.0660831,0.0448981,0.303662,-0.0528849,-0.033289,0.0641677,-0.102838
-0.0397421,-0.0209227,-0.0123299,-0.0147968,-0.000378248,0.15939,-0.0220412,-0.0208563,0.00852849,-0.0368515
-0.0107412,-0.00238401,-0.00166363,-0.00135078,-0.00261848,0.0388312,-0.0044283,-0.00506998,-0.00251464,-0.0080603
-0.000430617,-0.000182949,-5.22421e-05,-1.37811e-05,-0.000113234,0.00286308,-0.00109666,-0.000248705,-0.000142881,-0.000582014
3.00809e-05,9.32085e-08,2.28007e-06,7.52821e-09,1.77537e-06,7.7942e-08,7.70614e-07,-4.66034e-05,2.8957e-07,1.12282e-05
-0.000442075,-0.000119587,0.000149828,-0.000390909,-0.000822734,-0.000226742,-0.0002054,0.00395364,-0.000615475,-0.00128055
-0.00235242,-0.000446205,-0.00124086,-0.000320601,-0.00244831,-0.00277452,-0.0018288,0.0217975,-0.00298626,-0.00739954
-0.00760041,-0.00177873,-0.00615687,0.025573,-0.00628342,-0.0129548,-0.00843447,0.0464575,-0.00609702,-0.0227247
-0.0290865,-0.00866059,0.00286601,0.0891793,0.00156972,-0.0381139,-0.0232467,0.0762325,-0.0109097,-0.05983
-0.0449753,-0.0312198,0.0462193,0.130169,0.0121931,-0.0465659,-0.0595054,0.11859,-0.0131099,-0.111795
-0.052388,-0.0698491,0.0870629,0.122286,0.00209424,-0.0437148,-0.0762378,0.168594,0.0159601,-0.153808
-0.0478749,-0.117362,0.0655278,0.0598021,-0.00624201,-0.0063985,-0.0483522,0.237397,0.0667796,-0.203278
-0.0428853,-0.181956,0.0395286,0.0112667,-0.0630266,0.0586633,-0.0235481,0.28346,0.0855946,-0.167097
-0.0165182,-0.233236,0.0294942,-0.0380619,-0.0777103,0.0944275,-0.0438513,0.288841,0.105728,-0.109114
0.0199244,-0.276105,0.0459891,-0.0566169,-0.130004,0.113234,-0.0800498,0.303572,0.0841477,-0.0240915
0.0388801,-0.237192,0.0434884,-0.0862565,-0.168765,0.129524,-0.10369,0.294947,0.04055,0.0485145
0.0617652,-0.154663,0.0353001,-0.0848244,-0.226508,0.0918115,-0.162589,0.256894,0.0353826,0.147431
0.0653052,-0.062245,0.0542292,-0.032017,-0.323663,0.0085568,-0.194494,0.218443,-0.00403563,0.26992
0.0762391,-0.00967935,0.112962,0.0966191,-0.536383,-0.0470407,-0.182903,0.218169,-0.117068,0.389084
0.110485,-0.000582441,0.104706,0.185066,-0.589978,-0.0815422,-0.204885,0.243251,-0.1439,0.37738
0.182705,-0.0470314,0.0548774,0.141292,-0.414097,-0.0685855,-0.290189,0.292876,-0.0939336,0.242086
0.210902,-0.043184,0.0261846,0.101748,-0.219889,-0.0216295,-0.393344,0.319765,-0.0762867,0.0957329
0.206491,-0.0205374,0.00541678,0.0962375,-0.130001,0.0318869,-0.455661,0.258361,-0.0157328,0.0235385
0.158866,-0.01881,0.00580876,0.10563,-0.0863192,0.0899012,-0.417481,0.181933,0.0176728,-0.0372012
0.123258,-0.0536558,-0.031412,0.116756,-0.0428381,0.155646,-0.334895,0.105242,0.0430826,-0.0811839
0.0783415,-0.0906425,-0.00727815,0.052124,0.020515,0.213235,-0.273412,0.0391865,0.104021,-0.13609
0.0832212,-0.118517,-0.0136698,-0.0534142,0.0635856,0.254556,-0.208296,0.00714328,0.163504,-0.178113
0.0530879,-0.104035,-0.0698095,-0.108037,0.0498967,0.329886,-0.134955,-0.0148895,0.160506,-0.161651
-0.036582,-0.0661034,-0.0548553,-0.0547093,-0.00140148,0.324738,-0.0647099,-0.0411033,0.0928939,-0.0981667
-0.0454658,-0.0247651,-0.0171255,-0.0149262,-0.0253491,0.1957,-0.0251665,-0.0261644,0.0193348,-0.036072
-0.0100293,-0.00236782,-0.00147785,-0.00160724,-0.0102075,0.0424989,-0.00643918,-0.00765503,0.00355022,-0.00626517
-0.000584662,-0.000103102,-3.6457e-05,-2.06618e-06,-8.3805e-05,0.00153753,-0.000704718,-0.000510031,0.00113144,-0.000644125
-6.14387e-06,-3.379e-07,-1.49926e-06,-7.71011e-06,-2.88383e-05,-1.11997e-05,-2.63728e-06,0.000196918,-6.01067e-06,-0.000132541
-0.000847448,-0.000170291,-0.000291681,-0.000847545,-0.00126209,-0.000303611,-0.000413889,0.00652583,-0.00052524,-0.00186404
-0.00400865,-0.000806348,-0.000418395,-0.00124789,-0.00388562,-0.00201736,-0.00219562,0.0273914,-0.00472117,-0.00809038
-0.0116066,-0.002206,-7.10504e-05,0.0201995,-0.0137936,-0.0108098,-0.0104338,0.0608413,-0.00813699,-0.0239829
-0.0335109,-0.00906726,0.0150242,0.0583877,-0.00789086,-0.0275703,-0.0242407,0.096728,-0.000412656,-0.0674472
-0.0433142,-0.0308931,0.0370438,0.0749517,-0.00319188,-0.0329229,-0.0527612,0.129638,0.0146531,-0.0932033
-0.0380077,-0.0597351,0.00982018,0.0320195,-0.0216601,-0.0200317,-0.0445231,0.159181,0.0684502,-0.0855125
-0.0201489,-0.096912,-0.0628659,-0.0747847,-0.028913,0.0293734,-0.00565068,0.199384,0.134954,-0.0744365
-0.0155708,-0.155936,-0.118777,-0.173296,-0.0557295,0.100879,0.0225724,0.230108,0.182593,-0.0168438
0.00514672,-0.203315,-0.0983433,-0.249634,-0.0398199,0.130399,-0.0188319,0.247017,0.205785,0.0215964
0.0351294,-0.24274,-0.061125,-0.31782,-0.0521717,0.14617,-0.0357578,0.257379,0.177086,0.0938505
0.0405883,-0.239015,-0.0723906,-0.364267,-0.0466571,0.193128,-0.0420623,0.278858,0.131328,0.120488
0.0675179,-0.152663,-0.110696,-0.309449,-0.0823153,0.14407,-0.0568709,0.286317,0.0716755,0.142413
0.0809639,0.0153912,-0.105429,-0.130242,-0.226873,0.0632001,-0.0780264,0.298823,-0.0284457,0.110639
0.0681967,0.19271,-0.0238349,0.0863837,-0.488444,-0.0178163,-0.0838977,0.336726,-0.197339,0.127316
0.0506879,0.225626,0.0546069,0.220448,-0.452196,-0.0670476,-0.211664,0.378974,-0.261553,0.0621171
0.0697983,0.126016,0.085852,0.193607,-0.206627,-0.10643,-0.372689,0.434234,-0.188319,-0.0354412
0.125375,0.00640061,0.0419361,0.140457,-0.0554518,-0.0987308,-0.460814,0.436552,-0.102401,-0.033324
0.18549,-0.0386943,0.0132006,0.117961,-0.0425618,-0.0689496,-0.466453,0.330137,-0.0190012,-0.011128
0.178255,-0.0879176,-0.00215454,0.121039,-0.0521881,-0.0105335,-0.396164,0.237791,0.0357423,-0.0238702
0.135498,-0.132786,-0.0382497,0.133198,-0.0407552,0.0427403,-0.303346,0.149041,0.0851156,-0.030456
0.10286,-0.153188,-0.0103642,0.0464321,-0.0288723,0.105138,-0.224911,0.0833433,0.168502,-0.0889402
0.130502,-0.13234,-0.0260862,-0.0448972,-0.00160853,0.134735,-0.176935,0.0268355,0.223019,-0.133223
0.11203,-0.0911288,-0.066778,-0.079743,-0.0149976,0.192218,-0.10606,-0.0148808,0.193028,-0.123687
0.00535359,-0.0491562,-0.0466795,-0.0386577,-0.0336062,0.221274,-0.0543527,-0.0318214,0.104662,-0.0770156
-0.0334919,-0.0174596,-0.0134598,-0.00792981,-0.0275745,0.144026,-0.0246043,-0.0177504,0.0262224,-0.0279779
-0.00636377,-0.00277603,-0.00148856,-0.00112435,-0.00975784,0.0297867,-0.00628574,-0.00601258,0.00918871,-0.00516656
-0.000159428,-0.000129944,-8.27178e-05,-9.70483e-06,-0.000758105,0.00331375,-0.000651921,-0.00137581,0.000862009,-0.00100813
-1.41787e-05,-4.91518e-07,-3.41517e-06,-1.63706e-05,-4.31863e-05,-1.48261e-05,-4.56532e-06,0.000391283,-1.05739e-05,-0.000283675
-0.000988387,-0.000160852,-0.000300777,-0.00082706,-0.00108968,-0.000296877,-0.000434375,0.00641128,-0.000404656,-0.00190862
-0.00444705,-0.000629043,-0.00085835,0.000534017,-0.00504634,-0.00160073,-0.0016365,0.0268094,-0.00395137,-0.009174
-0.0147997,-0.00188198,-0.00012374,0.0190879,-0.0157408,-0.00739631,-0.00722817,0.0602076,-0.0104775,-0.0216473
-0.0298614,-0.00665982,-0.00585485,0.0284744,-0.00708527,-0.0133628,-0.0214467,0.097108,0.00933934,-0.0506509
-0.0277158,-0.024679,-0.0241777,0.0033784,-0.0100095,-0.0125164,-0.0301539,0.127689,0.0373825,-0.0391978
-0.0165285,-0.0491651,-0.088999,-0.0856655,-0.0378653,0.0164127,-0.00124206,0.128608,0.106814,0.0276301
0.00459537,-0.0726759,-0.208691,-0.212996,-0.03563,0.0727554,0.0444371,0.133213,0.182028,0.0929637
0.000995537,-0.115899,-0.236235,-0.335347,-0.0180908,0.14699,0.0550348,0.115622,0.230751,0.15618
0.00728779,-0.167103,-0.210688,-0.436087,0.0591304,0.194958,0.00295202,0.153611,0.256287,0.139652
0.0266306,-0.211857,-0.209502,-0.497928,0.0745811,0.212717,0.0162169,0.17105,0.233291,0.1848
0.0799116,-0.238587,-0.247849,-0.482973,0.0826108,0.26728,0.0119071,0.1731,0.16271,0.191888
0.0794683,-0.146777,-0.302705,-0.327878,0.0643751,0.22915,0.0181317,0.18436,0.138094,0.0637805
0.0372345,0.101048,-0.317339,-0.0563561,-0.169157,0.126896,0.046392,0.254055,0.0322574,-0.0550305
-0.0281953,0.422793,-0.195109,0.19001,-0.397671,0.00590414,-0.0577159,0.273481,-0.132997,-0.0805006
-0.0830711,0.47097,-0.0581741,0.283442,-0.255333,-0.105895,-0.250733,0.31862,-0.207904,-0.111923
-0.097829,0.219835,0.0323515,0.278033,-1.84955e-05,-0.20103,-0.37042,0.418505,-0.17665,-0.102776
-0.00237312,-0.008206,0.0137874,0.202092,0.0866098,-0.263598,-0.38215,0.432403,-0.0800139,0.00144904
0.11746,-0.0871049,-0.00572825,0.153074,0.0119378,-0.283183,-0.336695,0.331973,0.0183385,0.0799259
0.173853,-0.133043,-0.0206484,0.114005,-0.0134427,-0.251705,-0.278227,0.237847,0.0771348,0.0942269
0.189194,-0.167367,-0.0366013,0.086317,-0.0636522,-0.196328,-0.192681,0.153473,0.13707,0.0905736
0.168036,-0.14337,-0.035277,-0.00477174,-0.0624324,-0.15299,-0.113961,0.0988563,0.23231,0.0136005
0.202101,-0.0984116,-0.0608561,-0.068008,-0.0471768,-0.101489,-0.0693043,0.0382801,0.253619,-0.0487548
0.181671,-0.0592188,-0.0676855,-0.0601786,-0.0459941,-0.0255518,-0.0375941,-0.0188987,0.201172,-0.067721
0.0554143,-0.0260959,-0.0321087,-0.0250556,-0.0273998,0.0498171,-0.0285956,-0.0243766,0.108614,-0.0502127
-0.0160758,-0.00721434,-0.00974214,-0.00386396,-0.0155137,0.0584275,-0.0157613,-0.00891973,0.0390575,-0.0203941
-0.00487187,-0.00134628,-0.000979922,-0.000421509,-0.0035897,0.0147913,-0.0063948,-0.00176663,0.00965615,-0.00507669
-5.28724e-05,-4.122e-05,-0.000121867,-8.98387e-06,-0.000256265,0.00144039,-0.00102313,-0.000171401,0.00157888,-0.00134353
-1.07653e-05,-4.10361e-07,-1.92031e-06,-1.08901e-05,-1.74613e-05,-8.06077e-06,-2.27112e-06,0.000335516,-7.32398e-06,-0.000276412
-0.000688354,-4.02167e-05,-0.000212424,-0.000729149,-0.00159356,-0.000326443,-0.000431478,0.00667832,-0.000341246,-0.00231545
-0.00538516,-0.000382327,-0.000881355,0.00132396,-0.00666884,-0.00147106,-0.0012188,0.0261838,-0.00282643,-0.00867376
-0.0160727,-0.00115456,-0.00239392,0.0113831,-0.0117835,-0.0049981,-0.00637444,0.0555065,-0.00923126,-0.0148812
-0.0339451,-0.00364283,-0.0203146,0.00264303,-0.00360164,-0.00289168,-0.0174463,0.0881798,0.0018747,-0.0108553
-0.00857572,-0.0138502,-0.0910957,-0.0548445,-0.0100799,0.00422852,-0.00926203,0.0903627,0.0438554,0.0492615
0.0242349,-0.0331815,-0.211427,-0.161485,-0.0194384,0.0451088,0.0265794,0.0865253,0.102115,0.140969
0.0370399,-0.0560978,-0.334254,-0.28871,0.00269808,0.0953568,0.0745187,0.0668536,0.175129,0.227465
0.020819,-0.0980844,-0.353276,-0.394123,0.0765319,0.15794,0.0598257,0.0520893,0.227061,0.251217
0.0132108,-0.155701,-0.356521,-0.438383,0.156861,0.206424,0.0440316,0.0878477,0.257704,0.184525
0.058108,-0.227562,-0.367023,-0.416056,0.230662,0.267512,0.0429825,0.0517798,0.175457,0.18414
0.0949107,-0.276501,-0.412876,-0.301729,0.250578,0.337784,0.0543465,0.0298702,0.140073,0.0835427
0.0467252,-0.177082,-0.470286,-0.0999733,0.139505,0.300213,0.11069,0.0429987,0.212794,-0.105584
-0.0452458,0.16418,-0.458948,0.123344,-0.166544,0.175081,0.0954362,0.0535193,0.214252,-0.155073
-0.165768,0.614357,-0.33436,0.266297,-0.289042,-0.0147204,-0.0926506,0.0066836,0.10469,-0.0954859
-0.256871,0.609763,-0.150645,0.322094,-0.0828963,-0.17898,-0.261206,0.0852773,-0.064235,-0.0222999
-0.282554,0.183386,-0.035006,0.264036,0.187738,-0.273811,-0.247842,0.26736,-0.0931499,0.0298436
-0.187356,-0.0719247,-0.0462432,0.202964,0.180888,-0.349233,-0.198678,0.32267,-0.0274658,0.174378
-0.0209934,-0.130008,-0.0536602,0.151515,0.0446446,-0.384456,-0.167988,0.262725,0.0406583,0.257562
0.10797,-0.16135,-0.00436787,0.0797611,-0.0429798,-0.379619,-0.137286,0.162388,0.103024,0.27246
0.176036,-0.146457,-0.0288945,-0.00355086,-0.108173,-0.335717,-0.0712657,0.112792,0.184775,0.220455
0.208982,-0.0965971,-0.0600623,-0.0795757,-0.0938319,-0.273442,0.0161795,0.0505363,0.20757,0.120241
0.255276,-0.0612746,-0.0993377,-0.0955034,-0.0851221,-0.208766,0.0589789,0.0080641,0.199527,0.0281577
0.225165,-0.0333351,-0.0938322,-0.057235,-0.0598951,-0.123844,0.0636251,-0.0356107,0.143089,-0.0281268
0.0891008,-0.013243,-0.0323933,-0.0211753,-0.0333582,-0.0385187,0.0140734,-0.0224466,0.0859067,-0.0279458
-0.00212422,-0.00214944,-0.00589611,-0.00146911,-0.0087223,0.0102156,-0.00358045,-0.00375784,0.0316924,-0.0142086
-0.00223384,-0.000506388,-0.000713974,-0.000204591,-0.000925993,0.00576435,-0.0058971,-0.000707431,0.00875677,-0.0033318
-4.55248e-05,0.000285893,-6.57831e-05,-8.99322e-06,-4.60455e-05,0.000109123,1.19399e-05,-5.40926e-05,-5.44854e-05,-0.000132032
-1.62023e-06,-6.55007e-08,-6.22647e-07,-2.09203e-06,-3.08607e-06,-9.34618e-07,-1.73117e-07,0.000274537,-2.06356e-06,-0.000263879
-0.000236958,-5.65036e-05,-8.35602e-05,-0.00060762,-0.00140935,-0.000215737,-0.000402216,0.00525997,-0.000150733,-0.00209729
-0.00515704,-0.000332237,-0.000543433,-0.00220468,-0.00501695,-0.00103504,-0.00118901,0.0240876,-0.00149058,-0.00711869
-0.0166998,-0.000583948,-0.0060832,-0.00166663,-0.00705411,-0.00215149,-0.00574864,0.0495664,-0.00373511,-0.00584349
-0.028962,-0.00217402,-0.0320303,-0.0158776,-0.00558378,0.000123407,-0.0177776,0.0707054,-0.00225481,0.0338314
0.0181713,-0.0105024,-0.138306,-0.0724294,0.00268652,0.0157583,-0.00141062,0.0601445,0.0160391,0.109849
0.0702538,-0.026004,-0.298324,-0.164852,0.0528893,0.0470385,0.0567757,0.0235466,0.0406417,0.198034
0.0699322,-0.0473885,-0.396067,-0.258015,0.114433,0.0986904,0.0835208,0.0247281,0.0605996,0.249566
0.03345,-0.0909694,-0.413605,-0.304379,0.215761,0.163958,0.0715182,0.017357,0.091391,0.215518
0.0399738,-0.158698,-0.425347,-0.289535,0.287338,0.207559,0.0705627,-0.0333827,0.109549,0.19198
0.113932,-0.261794,-0.443984,-0.216901,0.40025,0.322979,0.0582866,-0.148637,0.0501917,0.125677
0.0907796,-0.326997,-0.477849,-0.0836586,0.402778,0.416137,0.146557,-0.233468,0.091241,-0.0255195
0.00899154,-0.202635,-0.486035,0.0914908,0.207852,0.346624,0.172985,-0.297063,0.267467,-0.109677
-0.159402,0.23185,-0.450092,0.225958,-0.0957307,0.202985,0.0489689,-0.37137,0.352961,0.0138731
-0.319393,0.73848,-0.360285,0.300713,-0.184515,0.00767043,-0.13742,-0.387073,0.186401,0.155423
-0.397414,0.563113,-0.202357,0.255464,0.0261591,-0.142153,-0.163272,-0.178152,0.0417734,0.196839
-0.422915,0.0580771,-0.131345,0.208356,0.270111,-0.230835,-0.0735736,0.123099,0.0149334,0.184092
-0.322627,-0.141809,-0.122019,0.132165,0.209023,-0.238042,-0.0449061,0.233157,-0.00549604,0.300554
-0.128373,-0.18296,-0.0767244,0.0685434,0.0482441,-0.258143,-0.0541788,0.167177,0.0263264,0.39009
0.0161994,-0.167911,-0.0126343,-0.0141561,-0.0551083,-0.273266,-0.0577716,0.0992756,0.108326,0.357047
0.101304,-0.110434,-0.0190573,-0.0846125,-0.097625,-0.252328,0.00660047,0.0539056,0.147418,0.254828
0.186666,-0.0682625,-0.0730522,-0.121954,-0.0722814,-0.22991,0.102826,-0.0071685,0.15337,0.129765
0.283274,-0.0440355,-0.13701,-0.103007,-0.0590237,-0.19477,0.148102,-0.0353398,0.108764,0.0330461
0.250212,-0.0227893,-0.132767,-0.059117,-0.0502621,-0.132692,0.143919,-0.0441124,0.0704632,-0.0228542
0.107382,-0.00989325,-0.0453204,-0.0207394,-0.0213683,-0.0620319,0.0677586,-0.0255206,0.0382573,-0.0285243
0.00449614,-0.000906086,-0.00147345,-0.00061786,-0.000823266,-0.00629785,0.00197332,-0.00170597,0.0167421,-0.0113871
-0.000760049,-6.83143e-06,5.11483e-05,-8.4469e-05,0.00110404,0.000218801,-0.0042229,-9.84791e-05,0.00742886,-0.00363011
-5.94365e-05,0.000362264,-7.19885e-05,-1.09212e-05,-6.80186e-05,-1.06337e-05,0.000124163,-5.039e-06,-0.000172921,-8.7469e-05
-4.70898e-06,0.00011183,-1.23877e-05,-2.07435e-05,-8.59893e-06,-7.30565e-06,-1.80614e-05,-1.79244e-05,-1.09175e-05,-1.1182e-05
0.000166032,-2.01092e-05,-5.2107e-05,-0.00032917,-0.000730953,-7.77275e-05,-0.000329815,0.0020277,-5.21854e-05,-0.000601665
-0.00383234,-0.000125234,-0.00015768,-0.00141733,-0.00314773,-0.00045077,-0.000618978,0.0174569,-0.000523512,-0.00718337
-0.0146568,7.26004e-05,-0.00685353,-0.00317938,-0.00283717,-0.000490814,-0.00381762,0.0355647,-0.00353764,-0.00026438
-0.0168295,-0.00109293,-0.038908,-0.0197368,0.00931097,0.00103967,-0.0200187,0.0373372,-0.0127333,0.0616315
0.0520642,-0.0106627,-0.164213,-0.0678693,0.0616313,0.0134555,0.00658796,0.0151129,-0.0358062,0.129699
0.100754,-0.0253848,-0.312277,-0.134533,0.169277,0.0276919,0.0633143,-0.0238215,-0.0594773,0.194456
0.108261,-0.0488736,-0.370192,-0.196626,0.267711,0.0800381,0.0823024,-0.0454502,-0.0783039,0.201133
0.0674404,-0.0936277,-0.361021,-0.199013,0.332539,0.146161,0.0913858,-0.0689158,-0.0838401,0.168892
0.108781,-0.176956,-0.339813,-0.18918,0.380324,0.227322,0.0950686,-0.163277,-0.0742016,0.131932
0.158629,-0.287842,-0.33081,-0.128634,0.515527,0.328522,0.117158,-0.335394,-0.104146,0.0669898
0.0616807,-0.357504,-0.316018,0.0317174,0.491094,0.351528,0.192409,-0.503129,0.0639734,-0.0157519
-0.0948821,-0.203379,-0.288581,0.219896,0.232703,0.291582,0.140698,-0.601103,0.291743,0.0113223
-0.295402,0.330379,-0.264579,0.279631,-0.0119176,0.143712,-0.0255809,-0.666763,0.35604,0.154482
-0.403447,0.745448,-0.219341,0.202574,-0.0920282,-0.00419475,-0.10523,-0.567698,0.175918,0.267998
-0.45766,0.444611,-0.178268,0.0884315,0.0594001,-0.121048,-0.00237578,-0.242546,0.147316,0.262139
-0.467109,-0.0462571,-0.15667,0.082072,0.275007,-0.151738,0.0455786,0.0680501,0.0656677,0.285398
-0.370088,-0.217184,-0.130884,0.058926,0.275814,-0.128158,0.0216514,0.145934,-0.012101,0.35609
-0.181476,-0.213964,-0.0922953,0.0121737,0.122968,-0.108807,-0.0262728,0.0925614,0.00026089,0.394851
-0.043141,-0.147158,-0.0449615,-0.0507561,0.0339479,-0.118376,0.00232653,0.0762531,0.00107004,0.290795
0.0487635,-0.090655,-0.0566114,-0.0814409,0.0275033,-0.126201,0.0594203,0.0265499,0.0328103,0.159861
0.162978,-0.0554773,-0.101801,-0.0879275,0.0087327,-0.139068,0.153658,-0.0189646,0.032622,0.0452482
0.2707,-0.0360494,-0.158687,-0.0856534,-0.00602706,-0.133336,0.210048,-0.0358663,0.00916295,-0.0342926
0.252342,-0.0220505,-0.144231,-0.0591812,-0.0160997,-0.10434,0.195215,-0.0380251,-0.00499291,-0.0586364
0.113163,-0.0118178,-0.0627039,-0.0221753,-0.0118111,-0.0507611,0.111253,-0.0240077,-0.00167935,-0.0394601
0.00635951,-0.00249946,0.00469617,-0.00243749,0.00334851,-0.00683559,0.00892489,-0.00207575,0.00373584,-0.0132166
-0.000307269,-0.000493733,0.00394936,-0.000126301,0.000172207,-4.025e-05,-0.00370508,-0.000123866,0.00333331,-0.00265839
-1.81893e-05,1.43736e-06,0.000509824,-0.000176344,-6.87502e-05,-7.17298e-07,-0.00030763,4.06473e-06,8.83785e-05,-3.20731e-05
-5.59228e-06,-1.00763e-08,-9.50041e-08,-0.000177519,-9.94019e-07,0.000323578,-4.2023e-06,-7.24925e-07,-1.15465e-05,-0.000122894
-7.50913e-05,-5.32856e-06,-0.000852429,0.000896067,-0.000314523,-5.1285e-05,-5.21386e-05,0.000763918,-0.000131437,-0.000177753
-0.00244557,2.83957e-05,-0.00067108,-8.6143e-06,-0.00188451,-0.000406255,-0.000191823,0.00972833,-0.000301973,-0.00384689
-0.0135716,0.000899996,-0.00568737,0.00183731,3.65631e-05,-0.00116,-0.00429931,0.0208716,-0.00397423,0.005047
-0.009713,-0.00152504,-0.0306495,-0.0135173,0.0348187,-0.00335906,-0.0295805,0.020607,-0.0203915,0.0533102
0.0900012,-0.0120303,-0.139543,-0.057572,0.124371,-0.010501,-0.00540136,-0.00356976,-0.0636268,0.077872
0.142784,-0.0294235,-0.234984,-0.115714,0.263277,-0.0181248,0.0550075,-0.052516,-0.132534,0.122228
0.147528,-0.0558847,-0.232124,-0.150471,0.358794,0.00149765,0.0863643,-0.0943722,-0.186892,0.12556
0.129693,-0.102517,-0.173052,-0.143049,0.378871,0.0796296,0.098444,-0.158058,-0.219996,0.110035
0.177903,-0.189722,-0.126912,-0.121659,0.377887,0.186585,0.131226,-0.28768,-0.238198,0.0905702
0.166758,-0.296583,-0.0746387,-0.0884458,0.453861,0.240965,0.177692,-0.454148,-0.169271,0.0438085
0.00215609,-0.336863,-0.0271673,0.0379069,0.40044,0.210622,0.236213,-0.572513,0.0408868,0.00831826
-0.213399,-0.111667,0.00800607,0.178438,0.24457,0.146415,0.0960748,-0.642135,0.257905,0.0357934
-0.37199,0.433899,0.00601237,0.140852,0.0540059,0.0332113,-0.0578597,-0.659452,0.339826,0.0814951
-0.447336,0.678366,-0.042714,0.0536789,-0.0257512,-0.0852498,0.00590698,-0.471436,0.237007,0.0975278
-0.482742,0.346907,-0.0924464,-0.020289,0.10465,-0.155699,0.113381,-0.128368,0.148603,0.166003
-0.466034,-0.13305,-0.0860348,-0.00968508,0.327081,-0.163636,0.114669,0.0871615,0.0372701,0.292258
-0.329146,-0.295552,-0.112816,0.0261665,0.379184,-0.120814,0.0186389,0.134826,-0.0269023,0.326415
-0.164345,-0.225716,-0.0747892,0.0349447,0.250554,-0.078318,-0.012008,0.146092,-0.119643,0.243228
-0.0367094,-0.151305,-0.0684535,0.00927995,0.192091,-0.0391951,0.0288333,0.132532,-0.157187,0.0901139
0.0524074,-0.0991487,-0.0834036,-0.00661136,0.132031,-0.0332623,0.109685,0.0797727,-0.128621,-0.0228492
0.143646,-0.0634361,-0.123375,-0.0116313,0.0745822,-0.058018,0.184231,0.0355046,-0.0874115,-0.0940915
0.219131,-0.040794,-0.154414,-0.0465275,0.0344428,-0.0775379,0.229318,0.00632382,-0.061059,-0.108883
0.223466,-0.0265382,-0.136275,-0.0468177,0.0172753,-0.0659038,0.198311,-0.0195037,-0.0508041,-0.0932095
0.109206,-0.0142734,-0.0590474,-0.0220133,0.00187338,-0.0325149,0.10864,-0.0163428,-0.026542,-0.0489858
0.00529487,-0.00630799,0.0157227,-0.00424224,0.00053375,-0.00549021,0.00886387,0.00185417,-0.00494033,-0.0112886
-0.000392512,-0.00146808,0.0155417,-0.000950255,-0.000847442,-0.000120447,-0.0101365,-0.000118079,-0.000706892,-0.000801497
-8.23612e-06,-1.26517e-05,0.000369685,-0.000150694,-1.11258e-05,-7.85009e-06,-0.000146083,-3.69606e-06,-2.55376e-05,-3.80949e-06
-2.41698e-06,-5.81904e-09,-3.16119e-08,-5.82194e-05,-1.01514e-06,0.000104488,-1.43503e-06,4.85142e-06,-4.46093e-06,-4.17544e-05
-2.66053e-05,-5.13621e-07,-0.0013087,0.00164272,-7.42817e-06,-6.74857e-05,-1.82566e-06,-7.13976e-06,-0.000219781,-3.23599e-06
-0.00122485,0.000238897,-0.00267811,0.00493866,-0.00060417,-0.000509267,-0.000243987,0.0036277,-0.000617087,-0.00292779
-0.0159162,0.000614538,0.00423316,0.00903887,0.00194912,-0.00199637,-0.00841882,0.0153174,-0.004928,0.000106376
0.00890971,-0.00225235,0.00380772,-0.00421052,0.0312145,-0.0131212,-0.0389534,0.0098246,-0.0216019,0.026383
0.13194,-0.0152299,-0.0419142,-0.0418385,0.127721,-0.0499972,-0.0295579,-0.0315867,-0.0732551,0.0237188
0.168853,-0.0369755,-0.0757223,-0.086671,0.256595,-0.0854682,0.0400019,-0.0663772,-0.150584,0.036348
0.177638,-0.066079,-0.053605,-0.139299,0.34429,-0.100395,0.083806,-0.135876,-0.204328,0.0938488
0.174449,-0.114132,0.0128982,-0.178249,0.38369,-0.0322348,0.0981654,-0.236305,-0.217727,0.109444
0.225305,-0.193094,0.0542377,-0.178929,0.318483,0.043872,0.161896,-0.330115,-0.186599,0.0849428
0.163882,-0.271856,0.110476,-0.135054,0.2708,0.069973,0.243073,-0.425549,-0.0982594,0.0725152
-0.0867279,-0.21581,0.149388,-0.0223651,0.250246,0.0332257,0.262326,-0.479975,0.0659807,0.0437113
-0.317697,0.0378472,0.181596,0.0501695,0.1893,-0.0128513,0.0811565,-0.502978,0.277003,0.0164534
-0.446892,0.465038,0.171698,0.0273716,0.0961424,-0.10772,0.00220621,-0.475177,0.32434,-0.0570063
-0.49575,0.60704,0.0509321,-0.0209109,0.107455,-0.201564,0.108486,-0.267777,0.196136,-0.0840469
-0.502514,0.200694,-0.0110586,-0.0678523,0.260586,-0.210769,0.135924,-0.00325541,0.0922299,0.106014
-0.424276,-0.227519,-0.00600798,-0.0609459,0.429144,-0.175246,0.0685796,0.130081,-0.00682555,0.273014
-0.254652,-0.320218,-0.0607702,0.0242761,0.419286,-0.111644,-0.0146631,0.185263,-0.12503,0.258151
-0.077895,-0.235272,-0.0924446,0.0853622,0.301434,-0.0487544,-0.00843521,0.203235,-0.191619,0.0643886
0.0185475,-0.16543,-0.0826675,0.108554,0.220036,-0.00734108,0.0592188,0.173185,-0.23798,-0.0861238
0.0683825,-0.112872,-0.0846919,0.0963543,0.13723,0.00346462,0.140955,0.116456,-0.211578,-0.153701
0.110009,-0.0734834,-0.102479,0.0649128,0.076422,-0.011953,0.201815,0.0679461,-0.153935,-0.179255
0.173448,-0.0485421,-0.110775,0.00351669,0.0515011,-0.0330713,0.195674,0.00846284,-0.0927496,-0.147465
0.178939,-0.032571,-0.0916565,-0.0267771,0.0223324,-0.0339315,0.162399,-0.0215621,-0.0586678,-0.0985042
0.0891517,-0.0191322,-0.0229564,-0.0184069,-0.00344181,-0.0143441,0.0873301,-0.0165187,-0.0338108,-0.047871
0.00217229,-0.00814638,0.0312958,-0.00679713,-0.00607684,-0.00173509,0.0125766,-0.00135752,-0.0105807,-0.011351
-0.000454215,-0.00227477,0.0200143,-0.00122684,0.00112433,-0.000148729,-0.0126672,-0.000488846,-0.0024154,-0.00146269
-4.85368e-05,-9.06549e-05,0.00166486,-9.19668e-05,-5.55321e-05,-6.3282e-05,-0.0011141,-1.86205e-05,-0.000103201,-7.89689e-05
-3.34788e-06,-1.43984e-08,-2.88206e-09,-5.35205e-07,-3.94095e-06,-8.35669e-06,-3.37445e-07,2.90788e-05,-3.88698e-06,-8.65634e-06
-1.86707e-05,1.24367e-05,-0.000714166,0.00137923,-3.73611e-06,-3.59548e-05,-2.43704e-06,-0.000205464,-0.000123687,-0.000287552
-0.0017718,-6.22236e-05,-0.00422655,0.0119284,-0.000939193,-0.000582913,-0.00039983,0.000138744,-0.00166598,-0.00241869
-0.0200372,-0.00107288,0.0157975,0.0229319,-0.00242243,-0.00078475,-0.0114459,0.00699996,-0.00553689,-0.00442927
0.0178563,-0.00423847,0.0545015,0.0134936,0.00476691,-0.012839,-0.0460099,-4.39381e-05,-0.0284604,0.000973446
0.152977,-0.0220178,0.0742848,-0.0193868,0.0765251,-0.0654657,-0.0550063,-0.0381641,-0.0807657,-0.0229807
0.19867,-0.0526461,0.0969455,-0.0698626,0.197799,-0.115431,0.00858802,-0.07201,-0.143676,-0.0483773
0.188416,-0.0883495,0.0865885,-0.139627,0.285798,-0.169713,0.0868956,-0.142948,-0.135257,0.0281951
0.200322,-0.138865,0.0991458,-0.248201,0.32005,-0.182549,0.111708,-0.247489,-0.0472141,0.133094
0.22178,-0.185951,0.132608,-0.316027,0.247173,-0.159134,0.187704,-0.302367,0.0158214,0.158392
0.122213,-0.18084,0.164068,-0.319802,0.143039,-0.138671,0.288188,-0.337056,0.0707223,0.188137
-0.139094,-0.0951896,0.189505,-0.227717,0.122527,-0.131891,0.280737,-0.348128,0.201476,0.147775
-0.366489,0.118315,0.239363,-0.156538,0.158584,-0.144524,0.0849719,-0.314306,0.351827,0.0287979
-0.460975,0.482133,0.189892,-0.153507,0.183174,-0.186991,0.0454667,-0.235258,0.245266,-0.1092
-0.489404,0.515588,0.0739959,-0.172793,0.300962,-0.211634,0.113751,-0.0839282,0.0513807,-0.0979197
-0.45453,0.0471601,0.0573692,-0.160365,0.439259,-0.188418,0.0624178,0.115091,0.000875884,0.0811397
-0.328408,-0.266507,0.0622706,-0.0641047,0.465658,-0.119705,-0.0505035,0.15111,-0.0551045,0.205294
-0.132377,-0.319309,0.00027757,0.040718,0.365101,-0.0405887,-0.0688952,0.171165,-0.119061,0.102968
0.0201308,-0.246808,-0.06462,0.149075,0.24281,0.00288899,0.0181702,0.154006,-0.213197,-0.0624572
0.0649272,-0.16973,-0.0605026,0.176799,0.131353,0.0379544,0.0949266,0.10842,-0.223433,-0.160713
0.0820102,-0.113976,-0.0325453,0.144666,0.0884045,0.0286478,0.133178,0.0481564,-0.184593,-0.193947
0.103424,-0.0743538,-0.0134614,0.130478,0.0509834,0.00641844,0.137941,0.0140995,-0.162441,-0.193089
0.13826,-0.0522862,-0.00585933,0.0544101,0.000713558,-9.08391e-05,0.133527,-0.0306655,-0.101867,-0.136142
0.124305,-0.0373863,0.0112486,-0.0111577,-0.0147632,-0.00319077,0.100035,-0.0337063,-0.041623,-0.0937609
0.05807,-0.0257549,0.0472131,-0.0179144,-0.0143698,0.00345629,0.0448825,-0.0202428,-0.0277778,-0.0475622
-0.0040236,-0.0120745,0.0741434,-0.00821112,-0.0101525,-0.000844116,-0.00646077,-0.00506513,-0.0144432,-0.0128684
-0.0023957,-0.00156295,0.0246014,-0.00130083,0.000503712,-0.000462898,-0.014,-0.00054656,-0.003236,-0.00160024
-7.96373e-05,-6.69591e-05,0.00245338,-3.30064e-05,-0.000125419,-0.0001043,-0.00184283,-3.73582e-05,-8.89824e-05,-7.48848e-05
0.0,0.0,0.0,0.0,0.0,0.0,0.0,0.0,0.0,0.0
-2.39434e-05,0.00013364,-0.000428123,0.000618425,-4.41312e-06,-2.23448e-05,-2.4271e-05,-7.54372e-06,-0.000144231,-9.7196e-05
-0.00273329,-0.000459202,-0.00420837,0.0141016,0.000665122,-0.000714184,-0.000607225,-0.000995312,-0.00191911,-0.00313002
-0.023155,-0.00179764,0.0288033,0.0496689,-0.0161313,-0.000731219,-0.0152998,-0.001078,-0.0100605,-0.0102187
0.0162887,-0.00782515,0.116645,0.0457194,-0.0271612,-0.00475485,-0.0602556,-0.0172041,-0.0398716,-0.0215805
0.149401,-0.0355146,0.189487,0.00999709,-0.00756336,-0.024192,-0.0877552,-0.0515621,-0.0847611,-0.0575365
0.211556,-0.0821091,0.205599,-0.0576662,0.0861159,-0.0461363,-0.0308945,-0.0905622,-0.102582,-0.0933207
0.195342,-0.123243,0.168098,-0.136769,0.173658,-0.147845,0.0776547,-0.144196,-0.0237724,-0.0389273
0.207326,-0.154585,0.137752,-0.275042,0.220281,-0.230909,0.137313,-0.202833,0.118413,0.0422823
0.22742,-0.14569,0.15875,-0.43796,0.173723,-0.261724,0.199149,-0.241228,0.222827,0.104734
0.121605,-0.0644653,0.190962,-0.497062,0.0895111,-0.258001,0.322297,-0.272385,0.223163,0.144376
-0.125365,0.011336,0.242445,-0.455351,0.0663434,-0.235593,0.323356,-0.255715,0.318209,0.110335
-0.32469,0.217996,0.265651,-0.41583,0.116131,-0.233278,0.171926,-0.188269,0.385812,0.00455047
-0.409559,0.458997,0.197167,-0.386592,0.225831,-0.226783,0.0927989,-0.0434556,0.170203,-0.0786075
-0.425949,0.375611,0.143309,-0.343589,0.357785,-0.196815,0.0649145,0.0925504,-0.0393803,-0.0284353
-0.331937,-0.022168,0.144464,-0.208874,0.387892,-0.128211,-0.0216473,0.145615,-0.0947369,0.129603
-0.163648,-0.247582,0.125846,-0.0274928,0.326308,-0.0407283,-0.082819,0.0938678,-0.0650955,0.0813441
-0.00598841,-0.297287,0.0527907,0.107622,0.166764,0.0262739,-0.00474141,0.078454,-0.0952313,-0.028657
0.0709262,-0.241957,0.00893875,0.165248,0.0577856,0.054782,0.100728,0.0324177,-0.135003,-0.113867
0.0805931,-0.158709,0.00181831,0.209209,-0.0292316,0.062776,0.131359,-0.00743704,-0.138409,-0.151969
0.0761345,-0.104723,0.0512374,0.167326,-0.047434,0.052521,0.133521,-0.0559773,-0.114131,-0.158474
0.0838315,-0.071874,0.0723466,0.145485,-0.0486731,0.03715,0.115714,-0.068319,-0.110304,-0.155358
0.101854,-0.0546116,0.0918982,0.0902576,-0.0729938,0.0126346,0.0872992,-0.0571441,-0.0787264,-0.120468
0.0712534,-0.043385,0.111856,0.00471046,-0.050046,0.01881,0.0380767,-0.0390353,-0.0342161,-0.0780244
0.0364744,-0.0309348,0.133494,-0.0287614,-0.0290639,0.013099,-0.0133559,-0.0206402,-0.0218441,-0.0384675
-0.0040389,-0.0127212,0.0981839,-0.0114844,-0.0147351,-0.00217509,-0.0238567,-0.00461872,-0.0151465,-0.00940723
-0.0017745,-0.000318794,0.0242066,-0.0011224,-0.00099773,-0.000413122,-0.0141226,-0.000678896,-0.00304516,-0.00173338
-0.000187633,-7.03242e-05,0.00207085,-2.63561e-05,-0.000259719,-5.96876e-05,-0.0011864,-8.79572e-05,-7.56517e-05,-0.000117118
-1.1373e-05,-3.136e-05,-1.57884e-05,-0.000121697,-0.000275311,-2.05665e-05,-2.04801e-05,0.000380271,-7.20981e-05,0.000188403
-4.12724e-05,2.00032e-06,-7.03378e-05,0.000219376,-1.03803e-05,-1.20917e-05,-1.6905e-05,-6.65238e-06,-3.15026e-05,-3.22344e-05
-0.00291673,-0.000608908,-0.0082866,0.0196952,0.000664134,-0.00138279,-0.000669407,-0.00100347,-0.00225571,-0.00323566
-0.0307917,-0.00289224,0.0330931,0.0843552,-0.0204024,-0.00463169,-0.0173601,-0.00449554,-0.0202766,-0.016598
0.00761367,-0.014311,0.146308,0.103599,-0.0590094,0.00835737,-0.068729,-0.0265575,-0.0587078,-0.0385642
0.119544,-0.0534374,0.246672,0.0750552,-0.0717319,0.0246181,-0.111393,-0.0764076,-0.0713437,-0.0815747
0.182271,-0.111572,0.264415,0.0106893,-0.0548028,0.0605348,-0.0742812,-0.122138,-0.0359253,-0.119191
0.188108,-0.14031,0.245213,-0.082196,-0.0112763,-0.0318445,0.0449349,-0.151906,0.0667115,-0.127436
0.210104,-0.124018,0.201244,-0.215763,0.00104395,-0.155861,0.13683,-0.180624,0.215647,-0.0886042
0.252637,-0.0580943,0.217023,-0.382997,-0.0491963,-0.235969,0.227715,-0.215177,0.294585,-0.0505262
0.174876,0.0121,0.271207,-0.453355,-0.122623,-0.282495,0.370013,-0.243551,0.292627,-0.0187986
-0.0350981,0.111027,0.304114,-0.450235,-0.125363,-0.280002,0.406375,-0.198265,0.324935,-0.0574904
-0.214114,0.252738,0.334289,-0.451991,-0.0272736,-0.246253,0.296497,-0.0838287,0.25765,-0.117715
-0.273142,0.339586,0.294552,-0.440257,0.0808471,-0.189614,0.148775,0.0950695,0.042779,-0.0985972
-0.256378,0.231792,0.217521,-0.365515,0.15828,-0.103536,0.052763,0.183759,-0.128124,0.00943868
-0.16214,-0.0428714,0.155139,-0.166602,0.157013,-0.0259034,0.025835,0.104568,-0.10716,0.062121
-0.0369508,-0.209913,0.124099,0.0611896,0.0916093,0.0108579,0.0693601,0.0117272,-0.0848909,-0.0370878
0.0500058,-0.243224,0.0810191,0.158331,-0.0426578,0.0593882,0.136193,-0.0260324,-0.0796014,-0.0934218
0.0729586,-0.218015,0.0682739,0.202733,-0.115604,0.0716449,0.173848,-0.0672526,-0.0695192,-0.119068
0.0516341,-0.150492,0.0907258,0.219942,-0.152831,0.0639223,0.144838,-0.102459,-0.0665636,-0.0987164
0.0350043,-0.110665,0.136503,0.187298,-0.143773,0.0713456,0.116485,-0.129579,-0.0516126,-0.111006
0.0541888,-0.0819526,0.162699,0.15672,-0.131398,0.0526041,0.0937964,-0.114318,-0.071339,-0.121001
0.0573408,-0.0684712,0.192601,0.0799689,-0.113296,0.0378236,0.0426678,-0.0806634,-0.0518238,-0.0961473
0.0320053,-0.0529448,0.233474,-0.00932279,-0.0643731,0.0303339,-0.0136789,-0.0536563,-0.038575,-0.0632628
0.0104699,-0.0354356,0.215951,-0.0414371,-0.0327385,0.0172104,-0.0462858,-0.0261922,-0.0256744,-0.0358676
-0.00659525,-0.0127743,0.105718,-0.013838,-0.0148005,-0.00177763,-0.0261917,-0.00555531,-0.0150431,-0.00914194
-0.00114047,-5.54995e-05,0.0168811,-0.00124451,-0.00108549,-0.000322071,-0.00952535,-0.00049024,-0.00241308,-0.0006044
-0.00054368,-1.50042e-06,0.00368872,-2.20062e-05,-6.67753e-06,-0.000116441,-0.00292989,-2.39161e-06,-3.66574e-05,-2.94765e-05
-2.51929e-09,5.32446e-06,-2.82113e-06,-2.29005e-07,-2.95213e-09,-1.6076e-07,-6.8476e-08,-1.62258e-08,-1.99706e-06,-2.63464e-08
0.00014679,-2.8682e-05,-0.000173342,0.00058105,-0.000227999,-3.4967e-05,-0.000115259,0.000695861,-0.000108676,-0.000734776
-0.00361172,-0.00116373,-0.0113029,0.031516,0.000315955,-0.00325863,-0.00116202,-0.00222659,-0.00403717,-0.00506914
-0.0278642,-0.00485625,0.0250961,0.117356,-0.0202496,-0.0135151,-0.0166195,-0.00965269,-0.0298953,-0.0197998
0.00435064,-0.0196991,0.12884,0.151712,-0.0650414,0.00379045,-0.0610005,-0.0340144,-0.0654272,-0.0435109
0.0913515,-0.0684451,0.228261,0.130726,-0.109887,0.0723783,-0.113928,-0.0904953,-0.0530113,-0.086951
0.150328,-0.116764,0.288966,0.0710829,-0.162554,0.164428,-0.111306,-0.138433,-0.00766904,-0.138079
0.153051,-0.122333,0.307153,0.00332015,-0.205771,0.132366,-0.0249075,-0.168867,0.102418,-0.17643
0.189424,-0.0654707,0.283543,-0.0924614,-0.239261,0.0513779,0.0800001,-0.192484,0.19428,-0.208948
0.251439,0.0093112,0.292362,-0.198537,-0.274994,-0.0550347,0.201709,-0.224303,0.227505,-0.229457
0.230996,0.0497815,0.29749,-0.250331,-0.300954,-0.145826,0.378552,-0.202958,0.188847,-0.245598
0.0943192,0.119504,0.309303,-0.284934,-0.282007,-0.157922,0.460152,-0.131314,0.129431,-0.256533
-0.0382513,0.147338,0.276584,-0.298095,-0.220443,-0.123482,0.391549,0.0123433,0.0735523,-0.221096
-0.103297,0.171686,0.214086,-0.275519,-0.0992597,-0.0462999,0.231117,0.148008,-0.121106,-0.119416
-0.0876176,0.0899075,0.137993,-0.197376,-0.030769,0.0178194,0.143528,0.16641,-0.203447,-0.0364467
-0.0492487,-0.0385137,0.0889092,-0.045149,-0.0377656,0.0453651,0.173312,0.0402367,-0.134854,-0.0422919
0.0143264,-0.135699,0.0703408,0.116751,-0.0562662,0.0282738,0.215387,-0.0711711,-0.0851667,-0.0967764
0.0398135,-0.186711,0.0829137,0.197624,-0.0959016,0.0505425,0.219661,-0.108367,-0.0703667,-0.12921
0.0309009,-0.182419,0.0952959,0.213009,-0.129955,0.075692,0.191113,-0.143351,-0.0503886,-0.0998983
-0.000331648,-0.141026,0.134172,0.206789,-0.153413,0.0694749,0.144343,-0.161011,-0.0284983,-0.070499
0.011771,-0.118309,0.179121,0.176228,-0.156491,0.0730812,0.099338,-0.171346,-0.0245482,-0.0688446
0.0285126,-0.0909025,0.244756,0.121795,-0.130557,0.0638729,0.044007,-0.145636,-0.0460194,-0.08983
0.0195016,-0.0700519,0.276026,0.0279725,-0.104332,0.0544924,-0.0159999,-0.096239,-0.0245778,-0.0667914
0.000757906,-0.0492767,0.283893,-0.0309296,-0.0544081,0.0365163,-0.0604083,-0.0562006,-0.0252042,-0.0447399
-0.00637396,-0.0306634,0.214148,-0.0393762,-0.028884,0.0138522,-0.0519754,-0.0219406,-0.0260272,-0.0227598
-0.00594187,-0.0120552,0.0965823,-0.0139868,-0.00928664,-0.00134631,-0.0300039,-0.00296635,-0.0146163,-0.00637886
-0.00100312,-0.000726317,0.0188627,-0.00245958,-0.0003476,-0.000207141,-0.00990874,-0.000379227,-0.00287324,-0.000957722
-0.000107659,5.27991e-06,0.0020562,-1.2149e-05,-1.71028e-07,-2.27292e-05,-0.0019088,-1.05835e-07,-9.63095e-06,-2.26779e-07
0.0,0.0,0.0,0.0,0.0,0.0,0.0,0.0,0.0,0.0
0.000583008,-4.46147e-05,-0.000322238,0.00069516,-9.52289e-05,-3.96087e-05,-0.000192085,-0.000128046,-0.000132209,-0.000324137
-0.00327637,-0.00114356,-0.00674194,0.0264419,-0.000252927,-0.00311734,-0.00129466,-0.00293916,-0.0039242,-0.00375177
-0.0259593,-0.00574206,0.0193746,0.1233,-0.0157392,-0.0156973,-0.0136962,-0.0112833,-0.0343128,-0.020244
-0.00357297,-0.0207356,0.111964,0.190888,-0.0563751,-0.019565,-0.05391,-0.0381938,-0.0684521,-0.0420472
0.0693554,-0.0548097,0.184883,0.187474,-0.109398,0.0405074,-0.107029,-0.0794919,-0.0496967,-0.0817937
0.118123,-0.0715935,0.249339,0.145626,-0.187387,0.161245,-0.136121,-0.137162,-0.00019375,-0.141876
0.116912,-0.0628239,0.293999,0.0949811,-0.264098,0.217815,-0.114437,-0.182024,0.0955411,-0.195866
0.136262,-0.00129739,0.299919,0.0598214,-0.31846,0.237273,-0.0378095,-0.212002,0.0795817,-0.243289
0.210001,0.0429521,0.278903,0.0159419,-0.346495,0.179904,0.0873121,-0.210517,0.0450132,-0.303015
0.24374,0.0553752,0.217121,-0.0565744,-0.330495,0.0933696,0.264403,-0.15742,0.0122278,-0.341748
0.172339,0.0505923,0.187685,-0.0939164,-0.283763,0.0493834,0.359921,-0.0766,-0.054829,-0.310813
0.0659213,-0.000995562,0.0949597,-0.108668,-0.236196,0.0342846,0.392662,0.0610576,-0.0726082,-0.230417
-0.00362523,-0.0180936,0.0361367,-0.0765111,-0.19286,0.0379802,0.370094,0.112281,-0.163783,-0.10162
-0.017996,-0.0137409,0.0218503,-0.0189835,-0.137521,0.0231213,0.340736,0.0695828,-0.18804,-0.0790085
0.00300047,-0.0346155,0.0136784,0.0405005,-0.0977155,0.0252888,0.323166,-0.032652,-0.13868,-0.101972
0.0082567,-0.0568781,0.0514851,0.12648,-0.071874,0.0326302,0.298755,-0.112585,-0.127721,-0.148548
0.00301193,-0.106916,0.0847523,0.172933,-0.0602865,0.0700274,0.231136,-0.15777,-0.0880105,-0.148877
-0.0261139,-0.142826,0.146734,0.17439,-0.0857522,0.0998533,0.176886,-0.186628,-0.0426166,-0.113928
-0.0234754,-0.140311,0.195054,0.14342,-0.107161,0.0954874,0.0974596,-0.19136,-0.0133315,-0.055781
-0.00235286,-0.119551,0.229062,0.134213,-0.110258,0.0899951,0.0284719,-0.178154,-0.0324586,-0.0389676
0.00949947,-0.0937989,0.288966,0.0552424,-0.0917797,0.070499,-0.0341344,-0.130844,-0.0206615,-0.0529889
-0.00500046,-0.067166,0.314967,-0.0290324,-0.0693782,0.0628451,-0.0712918,-0.087515,-0.00492354,-0.0435048
-0.0154956,-0.0414082,0.275024,-0.0533837,-0.0384046,0.0322547,-0.0622719,-0.0486724,-0.0210911,-0.0265518
-0.0120705,-0.0248371,0.174628,-0.0352646,-0.0183772,0.0065004,-0.0383058,-0.0159889,-0.0267753,-0.00950954
-0.00383029,-0.00762552,0.0562202,-0.00922245,-0.00702446,-0.000921648,-0.0149435,-0.00260652,-0.0104049,0.000359075
-0.000532951,6.11063e-05,0.00930621,-0.00180555,-0.000406228,-3.21715e-05,-0.00251211,-0.000341274,-0.00272962,-0.0010074
-8.29503e-06,2.27768e-05,-7.60329e-06,-8.18437e-06,-5.8456e-06,0.000188705,-8.50958e-07,-1.60176e-06,-0.000171224,-7.87604e-06
-7.80957e-08,1.3686e-05,-4.30395e-06,-2.05597e-06,-1.8858e-07,-3.2937e-07,-4.03881e-07,-9.67893e-07,-4.6838e-06,-6.74469e-07
-3.33034e-05,-2.46155e-06,-0.00010035,0.000506337,-4.75362e-05,-2.30739e-05,-3.27883e-05,-7.68453e-05,-6.04632e-05,-0.000129514
-0.00313923,-0.00104139,-0.000839251,0.0186337,-0.00118319,-0.00235689,-0.00113395,-0.00306447,-0.0033773,-0.00249797
-0.0189683,-0.0045911,0.0120301,0.0969756,-0.0112691,-0.00890516,-0.00882645,-0.0127338,-0.0277486,-0.0159632
-0.0139222,-0.0123386,0.0676361,0.172835,-0.0330574,-0.0108725,-0.0393856,-0.032736,-0.0651275,-0.0330312
0.0385756,-0.0123778,0.109474,0.221898,-0.0755642,-0.00624949,-0.0866282,-0.0670372,-0.0478389,-0.0742519
0.0810218,0.0106255,0.156458,0.208304,-0.145337,0.0773519,-0.139627,-0.116359,0.000141048,-0.13258
0.101356,0.025354,0.195974,0.168834,-0.209738,0.172371,-0.150236,-0.160692,0.0478577,-0.191081
0.113076,0.0576697,0.222477,0.158415,-0.248029,0.242742,-0.136403,-0.170647,0.00202209,-0.241322
0.17362,0.0466257,0.204494,0.115703,-0.263186,0.243947,-0.0698371,-0.145118,-0.0244356,-0.281814
0.225089,0.00370373,0.151689,0.0617495,-0.257478,0.209363,0.0456002,-0.0965822,-0.0365496,-0.306586
0.214843,-0.0712677,0.0766031,0.00739768,-0.219301,0.149929,0.183557,-0.0282132,-0.0484178,-0.26513
0.122241,-0.146351,-0.00299006,0.000189301,-0.170457,0.0893717,0.284716,0.0348123,-0.01977,-0.191762
0.055267,-0.14271,-0.0573267,0.0222898,-0.163788,0.0468249,0.355594,0.0421044,-0.020071,-0.138185
0.0293582,-0.0581446,-0.0751373,0.0390683,-0.132748,0.0229883,0.353029,0.00192655,-0.0556622,-0.124679
0.0199775,0.0122302,-0.027229,0.0597597,-0.0670473,0.0364763,0.278958,-0.0477793,-0.0969955,-0.16835
0.00927602,0.0296663,0.0394483,0.0971144,-0.0445753,0.0818246,0.180553,-0.101122,-0.107056,-0.185129
-0.0208431,-0.0153602,0.0971643,0.113046,-0.0053552,0.118526,0.114045,-0.143811,-0.0760014,-0.181411
-0.0328365,-0.0868785,0.153929,0.120727,-0.00682448,0.117037,0.0400478,-0.171167,-0.00448085,-0.129554
-0.0316876,-0.110847,0.205645,0.103214,-0.0208533,0.104369,-0.0252551,-0.173254,0.00183067,-0.0531614
-0.0218315,-0.101877,0.230217,0.0566031,-0.0431451,0.0968483,-0.0587437,-0.143877,-0.00578564,-0.00840906
-0.0237656,-0.0758424,0.268929,-0.0159141,-0.0419303,0.0817741,-0.0713766,-0.100007,-0.0134377,-0.00842907
-0.0243043,-0.0505778,0.26069,-0.0582656,-0.0317811,0.051127,-0.0651988,-0.066459,-0.00581055,-0.00941938
-0.0189335,-0.0306981,0.201964,-0.0527326,-0.0163958,0.0206623,-0.0348273,-0.0365622,-0.0274183,-0.0050582
-0.00821136,-0.0152609,0.106061,-0.0269309,-0.0084227,0.000352865,-0.0160655,-0.0129504,-0.0208662,0.00229407
-0.00148958,-0.00467845,0.0306134,-0.00759193,-0.00580916,-0.000699142,-0.00531498,-0.00231492,-0.0051038,0.00238863
-0.000222501,-0.00084672,0.00538975,-0.00146147,-0.000309342,-4.03111e-05,-0.00075934,-0.00018322,-0.00111245,-0.00045439
1.05991e-06,-2.25202e-13,-7.82338e-08,-1.7276e-08,-2.15444e-10,-3.70872e-07,-1.59265e-08,-2.84355e-10,-5.76907e-07,-1.69843e-10
-7.56552e-08,1.32583e-05,-4.16946e-06,-1.99172e-06,-1.82687e-07,-3.19077e-07,-3.9126e-07,-9.37646e-07,-4.53743e-06,-6.53392e-07
-9.96689e-07,3.80288e-06,-4.65629e-06,1.86446e-05,-1.86548e-06,-1.13005e-06,-3.34869e-07,-3.25128e-06,-5.15743e-06,-5.05547e-06
-0.00175778,-0.00107168,0.00154923,0.0134845,-0.000907219,-0.00188097,-0.000723281,-0.00332454,-0.00260096,-0.00276734
-0.0121879,-0.00277004,0.00675803,0.0648615,-0.00589018,-0.00788475,-0.00412139,-0.0109257,-0.0180341,-0.00980533
-0.0224196,-0.00103426,0.0335307,0.133165,-0.0170703,-0.00756155,-0.017722,-0.0211841,-0.0561642,-0.0235398
0.0141568,0.0410263,0.0428188,0.188502,-0.0453272,-0.0203578,-0.0501887,-0.0405607,-0.0686286,-0.0614406
0.0555675,0.0748942,0.0602077,0.214165,-0.0888289,-0.00828604,-0.0962658,-0.0662092,-0.0314562,-0.113788
0.0892924,0.0946365,0.0888753,0.20643,-0.133775,0.046514,-0.147597,-0.07444,-0.00225137,-0.167685
0.128462,0.0841887,0.112839,0.167439,-0.155566,0.122217,-0.189393,-0.0648398,-0.00426171,-0.201085
0.159377,0.0427766,0.0992334,0.169429,-0.163978,0.170392,-0.201988,-0.048583,-0.0164803,-0.210179
0.206248,-0.0602169,0.0632489,0.144335,-0.165948,0.188347,-0.189509,-0.0177535,0.028369,-0.19712
0.241144,-0.172018,-0.000181336,0.113914,-0.142959,0.177871,-0.157625,-0.0066801,0.125806,-0.179272
0.223349,-0.236134,-0.0832339,0.0759588,-0.10994,0.150822,-0.0909578,0.00213962,0.225089,-0.157092
0.200606,-0.186876,-0.142399,0.0560359,-0.0878166,0.129262,-0.0550677,0.015748,0.262359,-0.191851
0.132224,-0.0262783,-0.157698,0.0451401,-0.0758943,0.107779,-0.0558088,0.0197822,0.204036,-0.193283
0.0853273,0.0928301,-0.121425,0.033556,-0.00598219,0.13145,-0.0760878,0.00500878,0.0969488,-0.241627
0.0488747,0.135123,-0.0561879,0.0451734,0.00855722,0.14795,-0.0955107,-0.0547282,0.041612,-0.220863
0.00401413,0.0886836,0.0145615,0.0395111,0.0476733,0.133909,-0.118965,-0.0901913,0.0467181,-0.165914
-0.0304677,-0.0129225,0.0990868,0.0304114,0.0741714,0.12014,-0.122538,-0.130327,0.0641982,-0.0917527
-0.0407761,-0.0660892,0.136042,0.0351135,0.074657,0.100545,-0.110731,-0.127906,0.0295439,-0.0303996
-0.0444153,-0.0681085,0.166948,-0.0118455,0.0405548,0.0830756,-0.0882249,-0.106543,0.00721957,0.0213394
-0.0349512,-0.0519833,0.181269,-0.053438,0.0184344,0.0478511,-0.0674131,-0.0759563,0.00366513,0.032522
-0.0213618,-0.0306947,0.157763,-0.0484627,0.00227671,0.0229905,-0.0453976,-0.0416238,-0.0143083,0.0188189
-0.0099564,-0.0165076,0.102567,-0.029603,-0.00431379,0.00792408,-0.0234292,-0.0219003,-0.0203042,0.0155236
-0.00148172,-0.00737355,0.0481551,-0.0148113,-0.000838525,-0.000356398,-0.0090348,-0.00944003,-0.0121263,0.00730749
-0.000229353,-0.00124375,0.0121229,-0.00421697,-0.00098414,-0.000314433,-0.00224291,-0.002673,-0.00174566,0.00152729
-7.26713e-06,0.000379479,8.31142e-05,-6.84517e-05,0.000166864,-6.273e-06,-2.08902e-05,-1.37651e-05,-0.000313931,-0.00019888
1.95676e-06,-4.15758e-13,-1.44432e-07,-3.18942e-08,-3.97742e-10,-6.84687e-07,-2.94028e-08,-5.24963e-10,-1.06506e-06,-3.13556e-10
0.0,0.0,0.0,0.0,0.0,0.0,0.0,0.0,0.0,0.0
0.0,0.0,0.0,0.0,0.0,0.0,0.0,0.0,0.0,0.0
-0.00059617,-0.000557624,-0.000271408,0.00689756,-0.000326374,-0.000195817,-0.000256279,-0.00240138,-0.0008382,-0.0014543
-0.00537601,-0.00276267,0.000914357,0.0324219,-0.00210479,-0.00261534,-0.00178053,-0.00683392,-0.00836559,-0.00349742
-0.0139462,0.00997766,0.000732399,0.0857409,-0.00803711,-0.00306932,-0.00566435,-0.00685973,-0.0445294,-0.0143448
-0.00260521,0.0547911,-0.0171765,0.147035,-0.0218587,-0.0125442,-0.0155173,-0.00169776,-0.0930021,-0.0374241
0.0151335,0.0963835,-0.048519,0.194889,-0.0472606,-0.022264,-0.0364491,0.0111658,-0.0932789,-0.0698004
0.0456906,0.107205,-0.0781508,0.217931,-0.0702978,-0.0127635,-0.0787627,0.0380692,-0.0644562,-0.104464
0.0844549,0.0799936,-0.0905617,0.180842,-0.081815,0.0387481,-0.130905,0.0415808,-0.0138931,-0.108444
0.125924,0.0162425,-0.0842099,0.172659,-0.0906813,0.0764062,-0.186248,0.0626824,0.00833402,-0.101109
0.164234,-0.0831009,-0.0833688,0.154687,-0.103816,0.124473,-0.237349,0.0730733,0.0769946,-0.0858279
0.200317,-0.160009,-0.127008,0.148729,-0.079634,0.176193,-0.28094,0.0488106,0.189221,-0.115679
0.203468,-0.178506,-0.171105,0.111861,-0.0758833,0.191794,-0.298415,0.0417772,0.319501,-0.144491
0.167156,-0.132104,-0.216373,0.0823076,-0.0526282,0.183625,-0.293905,0.0545315,0.398347,-0.190958
0.121642,-0.0170025,-0.223765,0.037716,-0.0366006,0.169964,-0.279383,0.0703832,0.352748,-0.195703
0.0678176,0.106629,-0.207783,0.0209858,0.0101364,0.148308,-0.263334,0.0751924,0.275238,-0.23319
0.0175726,0.153588,-0.150131,-0.0104657,0.0361088,0.12469,-0.238513,0.0265126,0.208852,-0.168214
-0.027661,0.109692,-0.104897,-0.00572298,0.0750964,0.0843503,-0.197773,-0.00870077,0.155837,-0.0802209
-0.0634157,0.0053359,-0.033924,0.0145537,0.116446,0.0545197,-0.141427,-0.0614701,0.11217,-0.0027884
-0.0665805,-0.0301927,0.014425,-0.0165733,0.0959515,0.043577,-0.0930836,-0.0826699,0.0678328,0.0673136
-0.0505837,-0.0299015,0.0378535,-0.0399064,0.0707306,0.0334029,-0.0606254,-0.072646,0.0287061,0.0829699
-0.0286421,-0.0249454,0.0542662,-0.0372458,0.0318125,0.0120684,-0.0395886,-0.0512781,0.00645872,0.0770943
-0.0134951,-0.0137821,0.0453657,-0.0268541,0.0113606,0.00665316,-0.0223818,-0.0303449,-0.00639143,0.0498699
-0.00479275,-0.00758555,0.0226322,-0.0127741,0.00172041,0.00305841,-0.0110291,-0.0155944,-0.00373999,0.028105
-0.000783939,-0.00332389,0.014302,-0.00416015,-0.000494457,4.02833e-05,-0.0050695,-0.00623709,-0.00408363,0.00981042
-8.87325e-05,-1.52652e-05,0.00528679,-0.00123383,0.000371407,-0.000232896,-0.00117002,-0.00230861,-0.00116952,0.000560674
-7.45744e-06,0.00117315,-0.000124846,0.000211825,0.000170083,-6.5151e-05,-1.95903e-05,-1.39398e-05,-0.00107501,-0.000249059
0.0,0.0,0.0,0.0,0.0,0.0,0.0,0.0,0.0,0.0
0.0,0.0,0.0,0.0,0.0,0.0,0.0,0.0,0.0,0.0
0.0,0.0,0.0,0.0,0.0,0.0,0.0,0.0,0.0,0.0
-0.00016221,-4.64381e-05,-0.000172067,0.00237936,-4.82779e-05,-5.64988e-05,-1.49944e-05,-0.00155643,-0.000113966,-0.000208477
-0.000735379,-0.00177619,-0.00340386,0.0101801,-0.0004425,2.24161e-05,-0.000184976,-0.000112424,-0.0024759,-0.00107127
-0.00282103,-0.00027499,-0.0118242,0.0367971,-0.00311131,-0.00200264,-0.00102376,0.00990517,-0.020897,-0.0047472
-0.00713052,0.0136568,-0.0263946,0.0716833,-0.0074771,-0.00696319,-0.0039335,0.0336107,-0.0568624,-0.0101893
-0.00724807,0.0162729,-0.0592113,0.11903,-0.0216044,-0.0134992,-0.0102042,0.0711586,-0.0823874,-0.0123074
-0.0223115,-0.00593927,-0.0959662,0.159981,-0.033795,-0.00648155,-0.0225706,0.119565,-0.085177,-0.0073048
-0.0246856,-0.0430837,-0.122282,0.172522,-0.0404338,-0.00185426,-0.0427481,0.155903,-0.0598715,0.00653468
-0.0242762,-0.0968784,-0.150723,0.190507,-0.0711202,0.0354414,-0.0634386,0.174366,-0.0344438,0.0405659
-0.016069,-0.162312,-0.159504,0.204374,-0.0849945,0.0594939,-0.0861829,0.182257,0.0190496,0.0438878
-0.00744216,-0.194509,-0.15545,0.191913,-0.0756465,0.102162,-0.11052,0.168575,0.0682213,0.0126964
-7.99393e-05,-0.189363,-0.155564,0.153778,-0.0701188,0.128394,-0.119867,0.169991,0.101466,-0.0186367
-0.00289392,-0.163815,-0.156865,0.139966,-0.0767996,0.134286,-0.12689,0.170603,0.116516,-0.0341048
-0.0199493,-0.10574,-0.150593,0.0994378,-0.0661755,0.117255,-0.129467,0.177824,0.149718,-0.0723115
-0.0419832,-0.0532524,-0.142398,0.0449699,-0.0479855,0.0728309,-0.127304,0.18162,0.165388,-0.0518854
-0.0593408,-0.0206828,-0.122187,0.00654543,-0.0329328,0.0280457,-0.112845,0.1258,0.152937,0.0346598
-0.0703593,-0.00501326,-0.105332,-0.0263432,-0.0104503,0.00838058,-0.0885441,0.0680362,0.0972493,0.132376
-0.0655373,-0.0116882,-0.0774202,-0.0462732,0.0152141,-0.0013457,-0.060885,-0.00629513,0.0830984,0.171133
-0.0537696,-0.0101068,-0.0606681,-0.0477862,0.0220614,-0.0036447,-0.0425052,-0.0360918,0.0519269,0.180584
-0.0340876,-0.00968327,-0.0304573,-0.0367228,0.00818357,-0.00162243,-0.0269252,-0.0390259,0.0161245,0.154216
-0.0191481,-0.00574761,-0.0170075,-0.0169258,-0.00458118,0.000884834,-0.0158568,-0.0353415,0.00142625,0.112297
-0.00809781,-0.00354739,-0.00841317,-0.00844786,-0.00562216,0.00352611,-0.00731346,-0.0229015,-0.00123905,0.0620563
-0.00256544,-0.000885307,-0.00687022,-0.00285573,-0.00466319,0.0023921,-0.00342665,-0.0136368,-0.000897015,0.0334083
-0.000454456,-9.29603e-05,0.00193503,-0.000453938,-0.00256913,0.00113012,-0.00107758,-0.00390094,-0.00118886,0.00667271
-2.82969e-05,0.00037252,0.00203213,-0.000114192,0.000126215,-4.86564e-05,-0.000189068,-0.00154734,-0.000425118,-0.000178187
-2.36492e-07,6.71055e-05,0.000291231,-3.91431e-06,2.18215e-07,-2.52222e-06,-5.16505e-06,-8.92509e-07,-4.78054e-05,-0.000298019
0.0,0.0,0.0,0.0,0.0,0.0,0.0,0.0,0.0,0.0
0.0,0.0,0.0,0.0,0.0,0.0,0.0,0.0,0.0,0.0
0.0,0.0,0.0,0.0,0.0,0.0,0.0,0.0,0.0,0.0
-1.50429e-05,-4.2111e-07,-1.70306e-05,0.000231541,-8.11314e-06,-2.52192e-06,-6.48619e-07,-0.000382904,-2.93673e-05,0.000224508
-0.000105447,-0.000131622,-0.00217894,0.00057316,-1.67965e-05,0.000330008,-2.06121e-05,0.00303023,-0.000750915,-0.000729065
-0.000877797,-0.00116116,-0.00559926,0.00457335,-0.00167767,8.74544e-05,-0.000186783,0.0130088,-0.00732134,-0.000845568
-0.00382531,-0.00402398,-0.0120295,0.0110984,-0.00797678,-0.00477732,-0.000983401,0.0348496,-0.0196117,0.00728011
-0.0120014,-0.01112,-0.0263589,0.0223893,-0.0153115,-0.0096599,-0.00368949,0.0762065,-0.0360937,0.0156391
-0.0238151,-0.02594,-0.0441466,0.0295553,-0.032355,-0.00987198,-0.00715601,0.132216,-0.0648523,0.0463654
-0.0419499,-0.0405487,-0.058088,0.0402246,-0.0602068,-0.00927612,-0.0137058,0.184748,-0.0939346,0.0927379
-0.0621437,-0.0603606,-0.0626406,0.0507864,-0.101098,0.00411058,-0.0195402,0.207071,-0.109158,0.152973
-0.0758736,-0.0827774,-0.0572825,0.0676429,-0.132361,0.0188219,-0.0256142,0.211867,-0.106786,0.182363
-0.0809119,-0.092817,-0.0565759,0.0734439,-0.15074,0.0285695,-0.0311082,0.240086,-0.100518,0.170572
-0.0865875,-0.0941551,-0.0536645,0.0695485,-0.160438,0.0263059,-0.0338597,0.239724,-0.0948316,0.187958
-0.0839255,-0.0938998,-0.0504464,0.0595805,-0.161805,0.0174215,-0.0380985,0.234596,-0.0681549,0.184732
-0.0809994,-0.0819341,-0.0505682,0.0339369,-0.159583,-0.00541275,-0.0390531,0.25818,-0.0279208,0.153355
-0.0723602,-0.0690742,-0.0464657,0.0036727,-0.175461,-0.013827,-0.0347216,0.246329,-0.00872919,0.170637
-0.0680655,-0.0409949,-0.0385176,-0.0230119,-0.183864,-0.0174181,-0.0310717,0.180436,-0.0190794,0.241587
-0.0576769,-0.0183617,-0.0335035,-0.0478036,-0.181762,-0.0186009,-0.0262124,0.109487,-0.0137822,0.288216
-0.0459203,-0.00856971,-0.0323349,-0.0437439,-0.144629,-0.0181373,-0.0218926,0.0419972,-0.00706732,0.280298
-0.0330072,-0.00523747,-0.0273662,-0.0293503,-0.0997556,-0.0146486,-0.0141857,-0.00130117,-0.00917933,0.234032
-0.017518,-0.00267441,-0.0163951,-0.0165173,-0.0667812,-0.00675289,-0.00814075,-0.0193421,-0.00741069,0.161532
-0.00879655,-0.00138487,-0.0128805,-0.00839031,-0.040265,0.00051552,-0.00426102,-0.0174398,-0.0074001,0.100303
-0.00339627,-0.000717008,-0.0081639,-0.00281129,-0.0159404,0.00257055,-0.00196291,-0.00935572,-0.00364683,0.0434238
-0.00103732,-6.06548e-05,-0.00460859,-0.00104324,-0.00510932,0.00161023,-0.00118357,-0.00629962,-0.000727272,0.0184594
-0.000176094,-1.11006e-05,-0.00104734,-2.84893e-05,-0.0021346,0.00115146,-0.000173638,-0.000307602,-0.000221021,0.00294843
-5.23849e-07,3.84961e-09,0.000258545,-2.78286e-05,-0.000253215,-4.64726e-06,-7.38426e-07,-6.88741e-05,-4.64749e-05,0.000143754
8.40999e-09,1.61011e-08,0.000310173,3.83318e-09,4.6588e-07,2.38255e-08,1.33984e-07,2.63399e-08,4.13849e-06,-0.00031499
0.0,0.0,0.0,0.0,0.0,0.0,0.0,0.0,0.0,0.0
0.0,0.0,0.0,0.0,0.0,0.0,0.0,0.0,0.0,0.0
0.0,0.0,0.0,0.0,0.0,0.0,0.0,0.0,0.0,0.0
0.0,0.0,0.0,0.0,0.0,0.0,0.0,0.0,0.0,0.0
0.0,0.0,0.0,0.0,0.0,0.0,0.0,0.0,0.0,0.0
-0.000133353,-0.000341321,-0.000233454,-4.16871e-05,-0.00150014,-0.000776385,-4.55888e-05,0.00317765,-0.00374619,0.00364046
-0.000839952,-0.0012039,-0.000930683,-0.000207001,-0.00334214,-0.00151061,-0.000237384,0.00790089,-0.00543506,0.00580584
-0.00334034,-0.00336847,-0.00280798,-0.00091716,-0.00897062,-0.00282225,-0.000825753,0.0197997,-0.00760156,0.0108544
-0.00756751,-0.00636606,-0.00419343,-0.00181361,-0.0149599,-0.00422041,-0.0016048,0.0326296,-0.00916028,0.0172565
-0.0151115,-0.00933411,-0.00512823,-0.00424896,-0.0286983,-0.00631753,-0.0033923,0.0572663,-0.0129162,0.0278808
-0.0234093,-0.0124254,-0.00605739,-0.00734863,-0.0518472,-0.00788661,-0.00495148,0.0728526,-0.0163192,0.0573927
-0.0238097,-0.0134252,-0.00742576,-0.0118106,-0.0695857,-0.00747743,-0.00672582,0.0842704,-0.0195912,0.0755811
-0.025407,-0.0173667,-0.0101543,-0.0136415,-0.0863404,-0.00665094,-0.00877991,0.122031,-0.0247097,0.0710192
-0.0246413,-0.0220343,-0.00899074,-0.0130357,-0.0932731,-0.00673927,-0.00924788,0.116966,-0.0271676,0.0881642
-0.0287637,-0.0265189,-0.0088812,-0.0163296,-0.101599,-0.0108433,-0.0108539,0.144468,-0.0273583,0.0866801
-0.0309418,-0.0233174,-0.00905434,-0.0216918,-0.115023,-0.0148312,-0.0115902,0.159585,-0.0265721,0.0934368
-0.0296919,-0.0150696,-0.00762662,-0.0202698,-0.107327,-0.00841295,-0.00957339,0.160781,-0.0226041,0.0597942
-0.0276981,-0.0081007,-0.00539533,-0.0181718,-0.104539,-0.00600585,-0.00797458,0.134453,-0.0168461,0.0602788
-0.0213673,-0.00341282,-0.00414437,-0.0183529,-0.0876175,-0.00743996,-0.00695439,0.0933579,-0.0130645,0.0689958
-0.0168572,-0.00244659,-0.00410437,-0.014317,-0.0738075,-0.00845081,-0.0060838,0.0528901,-0.0103543,0.0835314
-0.0117698,-0.00154993,-0.00390423,-0.00931496,-0.0507904,-0.00628735,-0.00426955,0.0159951,-0.00710542,0.0789966
-0.00719935,-0.000968202,-0.00285978,-0.00522325,-0.026423,-0.000933989,-0.00272533,-0.00705404,-0.0043998,0.0577867
-0.0034711,-0.00054053,-0.00160805,-0.00134385,-0.0123205,0.00112469,-0.00120007,-0.00493007,-0.002825,0.0271145
-0.00189666,-9.42455e-05,-0.000167184,0.000122393,-0.00375173,0.000720174,-0.000165349,2.39334e-05,-0.000297907,0.00550658
-0.000333918,-6.36824e-06,-1.82053e-05,-2.15582e-05,-0.00046181,-7.6024e-06,-4.92508e-05,-0.00107187,-8.82533e-05,0.00205884
-1.10618e-06,-1.9887e-09,-1.23636e-07,-2.22558e-07,-0.000192741,-4.26684e-07,-1.39391e-06,-9.94299e-06,-1.65476e-06,0.000207614
-1.91324e-05,-1.46382e-05,-3.22926e-05,-3.81658e-06,-2.34748e-05,-3.70232e-06,-5.19692e-06,0.000125865,-8.49624e-06,-1.51145e-05
0.0,0.0,0.0,0.0,0.0,0.0,0.0,0.0,0.0,0.0
0.0,0.0,0.0,0.0,0.0,0.0,0.0,0.0,0.0,0.0
0.0,0.0,0.0,0.0,0.0,0.0,0.0,0.0,0.0,0.0
0.0,0.0,0.0,0.0,0.0,0.0,0.0,0.0,0.0,0.0
0.0,0.0,0.0,0.0,0.0,0.0,0.0,0.0,0.0,0.0
0.0,0.0,0.0,0.0,0.0,0.0,0.0,0.0,0.0,0.0
-4.87429e-05,-0.000144991,-3.97873e-05,-3.20959e-05,-4.03108e-05,-1.48821e-05,-5.25279e-05,0.000446705,-3.54725e-05,-3.78948e-05
-0.000139259,-0.000364422,-0.000101599,-8.08943e-05,-0.00010384,-4.20257e-05,-0.000132719,0.00115865,-9.15243e-05,-0.000102372
-0.000179763,-0.000327401,-0.000106225,-8.56515e-05,-0.000146304,-5.211e-05,-0.000131324,0.0012733,-0.000109761,-0.000134767
-0.00014735,-5.1086e-05,-4.40724e-05,-4.22786e-05,-0.000284857,-5.13406e-05,-4.64433e-05,0.000993113,-9.66432e-05,-0.000229044
-0.000470842,-0.000111018,-8.74028e-05,-0.000113362,-0.00113466,-0.000149771,-0.000136369,0.00336459,-0.000215869,-0.000945303
-0.000770466,-0.000146776,-0.000131394,-0.000137415,-0.00254036,-0.000157576,-0.000160769,0.00366951,-0.000340848,0.000716092
-0.0010118,-0.000793406,-0.000386296,-0.00058303,-0.00457453,-0.000393209,-0.000475711,0.00778222,-0.00129453,0.0017303
-0.0017297,-0.000830095,-0.000569189,-0.000948668,-0.00382112,-0.000616519,-0.000825259,0.00940017,-0.00107471,0.0010151
-0.00318106,-0.000954521,-0.000661122,-0.00123338,-0.00573658,-0.00109103,-0.000990899,0.0144804,-0.00124075,0.000608975
-0.0049712,-0.00115367,-0.00084186,-0.00199899,-0.00666297,-0.00125397,-0.0013758,0.0257702,-0.00175041,-0.00576134
-0.00758225,-0.000789909,-0.000895409,-0.00247279,-0.0121644,-0.00179036,-0.00171404,0.0302866,-0.00274575,-0.000131616
-0.00843017,-0.000342148,-0.000628084,-0.00192058,-0.00761444,-0.00121722,-0.00130691,0.0304012,-0.00223082,-0.00671083
-0.00706174,-0.000330132,-0.000587902,-0.00230298,-0.0096461,-0.00114223,-0.00120865,0.0318102,-0.00223534,-0.00729514
-0.00445978,-0.000325361,-0.000290949,-0.0016993,-0.00761431,-0.00105025,-0.000798132,0.0264011,-0.00185747,-0.00830554
-0.00486834,-0.000624945,-0.000196774,-0.00126728,-0.00688667,-0.00097461,-0.000565069,0.0197495,-0.000863269,-0.00350253
-0.00322892,-0.000130677,-0.000149482,-0.000697504,-0.00612801,-0.000636296,-0.000357736,0.00971856,-0.000440643,0.00205071
-0.00232403,-0.00010015,-0.000135839,-0.000413471,-0.00195634,-0.000327259,-0.000211359,0.00349258,-0.000261821,0.00223769
-0.000986563,-1.1127e-05,-1.97194e-05,-0.000211741,-0.000461253,-7.86145e-05,-3.06751e-05,0.000369332,-6.05018e-05,0.00149086
-0.00181615,-4.21233e-06,7.86621e-06,-5.04541e-05,-0.000175325,-2.28444e-05,-2.12044e-05,0.00169962,-3.80605e-05,0.000420756
-0.000436152,-1.07119e-06,-1.54205e-06,-3.16406e-06,-3.92662e-05,-4.372e-06,-5.47018e-06,0.00051087,-9.49005e-06,-1.03429e-05
0.0,0.0,0.0,0.0,0.0,0.0,0.0,0.0,0.0,0.0
0.0,0.0,0.0,0.0,0.0,0.0,0.0,0.0,0.0,0.0
0.0,0.0,0.0,0.0,0.0,0.0,0.0,0.0,0.0,0.0
0.0,0.0,0.0,0.0,0.0,0.0,0.0,0.0,0.0,0.0
